{"learner":{"attributes":{"scikit_learn":"{\"n_estimators\": 100, \"objective\": \"count:poisson\", \"max_depth\": null, \"learning_rate\": null, \"verbosity\": null, \"booster\": null, \"tree_method\": null, \"gamma\": null, \"min_child_weight\": null, \"max_delta_step\": null, \"subsample\": null, \"colsample_bytree\": null, \"colsample_bylevel\": null, \"colsample_bynode\": null, \"reg_alpha\": null, \"reg_lambda\": null, \"scale_pos_weight\": null, \"base_score\": null, \"missing\": NaN, \"num_parallel_tree\": null, \"kwargs\": {}, \"random_state\": null, \"n_jobs\": null, \"monotone_constraints\": null, \"interaction_constraints\": null, \"importance_type\": \"gain\", \"gpu_id\": null, \"validate_parameters\": null, \"n_features_in_\": 1820, \"type\": \"XGBRegressor\"}"},"gradient_booster":{"model":{"gbtree_model_param":{"num_trees":"100","size_leaf_vector":"0"},"tree_info":[0,0,0,0,0,0,0,0,0,0,0,0,0,0,0,0,0,0,0,0,0,0,0,0,0,0,0,0,0,0,0,0,0,0,0,0,0,0,0,0,0,0,0,0,0,0,0,0,0,0,0,0,0,0,0,0,0,0,0,0,0,0,0,0,0,0,0,0,0,0,0,0,0,0,0,0,0,0,0,0,0,0,0,0,0,0,0,0,0,0,0,0,0,0,0,0,0,0,0,0],"trees":[{"base_weights":[7E-1],"categories":[],"categories_nodes":[],"categories_segments":[],"categories_sizes":[],"default_left":[false],"id":0,"left_children":[-1],"loss_changes":[0E0],"parents":[2147483647],"right_children":[-1],"split_conditions":[2.1000001E-1],"split_indices":[0],"split_type":[0],"sum_hessian":[2.2427567E5],"tree_param":{"num_deleted":"0","num_feature":"1820","num_nodes":"1","size_leaf_vector":"0"}},{"base_weights":[7E-1],"categories":[],"categories_nodes":[],"categories_segments":[],"categories_sizes":[],"default_left":[false],"id":1,"left_children":[-1],"loss_changes":[0E0],"parents":[2147483647],"right_children":[-1],"split_conditions":[2.1000001E-1],"split_indices":[0],"split_type":[0],"sum_hessian":[2.7668397E5],"tree_param":{"num_deleted":"0","num_feature":"1820","num_nodes":"1","size_leaf_vector":"0"}},{"base_weights":[7E-1],"categories":[],"categories_nodes":[],"categories_segments":[],"categories_sizes":[],"default_left":[false],"id":2,"left_children":[-1],"loss_changes":[0E0],"parents":[2147483647],"right_children":[-1],"split_conditions":[2.1000001E-1],"split_indices":[0],"split_type":[0],"sum_hessian":[3.4133894E5],"tree_param":{"num_deleted":"0","num_feature":"1820","num_nodes":"1","size_leaf_vector":"0"}},{"base_weights":[7E-1],"categories":[],"categories_nodes":[],"categories_segments":[],"categories_sizes":[],"default_left":[false],"id":3,"left_children":[-1],"loss_changes":[0E0],"parents":[2147483647],"right_children":[-1],"split_conditions":[2.1000001E-1],"split_indices":[0],"split_type":[0],"sum_hessian":[4.2110238E5],"tree_param":{"num_deleted":"0","num_feature":"1820","num_nodes":"1","size_leaf_vector":"0"}},{"base_weights":[7E-1,4.158233E-1,7E-1,7E-1,3.5485315E-1,4.722363E-1,7E-1,3.5371712E-1,7E-1,4.6873885E-1,7E-1,3.5151917E-1,7E-1,3.3243218E-1,7E-1,5.3379565E-1,7E-1,7E-1,3.5151917E-1,5.984332E-1,7E-1],"categories":[],"categories_nodes":[],"categories_segments":[],"categories_sizes":[],"default_left":[true,true,true,false,false,true,true,false,false,true,true,false,false,false,true,true,true,false,false,false,false],"id":4,"left_children":[1,3,5,-1,-1,7,9,-1,-1,11,13,-1,-1,-1,15,17,19,-1,-1,-1,-1],"loss_changes":[5E0,1.2205782E0,2.875E0,0E0,0E0,1.9423647E0,2.375E0,0E0,0E0,1.3654871E0,1.375E0,0E0,0E0,0E0,7.5E-1,2.782548E0,2.5E-1,0E0,0E0,0E0,0E0],"parents":[2147483647,0,0,1,1,2,2,5,5,6,6,9,9,10,10,14,14,15,15,16,16],"right_children":[2,4,6,-1,-1,8,10,-1,-1,12,14,-1,-1,-1,16,18,20,-1,-1,-1,-1],"split_conditions":[-1.532E3,-1.2905E3,2.1055E3,2.1000001E-1,1.0645595E-1,-1.984E3,1.548E3,1.0611514E-1,2.1000001E-1,6.148E3,1.2935E3,1.05455756E-1,2.1000001E-1,9.972966E-2,-1.4905E3,-1.74865E4,2.391E3,2.1000001E-1,1.05455756E-1,1.7952996E-1,2.1000001E-1],"split_indices":[974,597,104,0,0,32,107,0,0,25,124,0,0,0,831,95,117,0,0,0,0],"split_type":[0,0,0,0,0,0,0,0,0,0,0,0,0,0,0,0,0,0,0,0,0],"sum_hessian":[5.1950475E5,6.530427E1,5.1943947E5,6.9968853E0,5.830738E1,6.763656E1,5.193718E5,4.89782E1,1.8658361E1,5.1310493E1,5.193205E5,3.7316723E1,1.3993771E1,1.1661476E1,5.1930884E5,4.89782E1,5.1925988E5,1.1661476E1,3.7316723E1,6.0639675E1,5.1919922E5],"tree_param":{"num_deleted":"0","num_feature":"1820","num_nodes":"21","size_leaf_vector":"0"}},{"base_weights":[7E-1,4.1077003E-1,7E-1,6.33338E-1,2.7454513E-1,3.4303686E-1,7E-1,5.2561253E-1,7E-1,2.437703E-1,6.9700897E-1,5.663488E-1,2.6581785E-1,3.7224612E-1,7E-1,1.9818525E-1,5.3673136E-1,1.948963E-1,2.5946024E-1,2.5026718E-1,5.2332336E-1,4.3954432E-1,7E-1,2.2334045E-1,5.603569E-1,2.4752593E-1,7E-1,5.362493E-1,7E-1],"categories":[],"categories_nodes":[],"categories_segments":[],"categories_sizes":[],"default_left":[true,true,true,true,true,true,true,true,false,true,false,false,false,true,true,false,false,false,false,false,false,true,true,false,false,false,true,false,false],"id":5,"left_children":[1,3,5,7,9,11,13,15,-1,17,-1,-1,-1,19,21,-1,-1,-1,-1,-1,-1,23,25,-1,-1,-1,27,-1,-1],"loss_changes":[1.95E1,7.06036E0,1.325E1,9.7013855E-1,1.7773609E0,1.7080469E0,5.375E0,1.16212845E-1,0E0,5.7663918E-2,0E0,0E0,0E0,8.976598E-1,3.625E0,0E0,0E0,0E0,0E0,0E0,0E0,1.4233313E0,1.25E0,0E0,0E0,0E0,1E0,0E0,0E0],"parents":[2147483647,0,0,1,1,2,2,3,3,4,4,5,5,6,6,7,7,9,9,13,13,14,14,21,21,22,22,26,26],"right_children":[2,4,6,8,10,12,14,16,-1,18,-1,-1,-1,20,22,-1,-1,-1,-1,-1,-1,24,26,-1,-1,-1,28,-1,-1],"split_conditions":[1.792E3,2.4455E3,-1.5185E3,1.505E2,-7.0575E3,-1.2905E3,2.2575E3,8.65E1,2.1000001E-1,-1.094E4,2.091027E-1,1.6990465E-1,7.974536E-2,-7.4865E3,2.3975E3,5.9455577E-2,1.6101941E-1,5.846889E-2,7.783808E-2,7.508016E-2,1.5699701E-1,-1.55275E4,1.2935E3,6.700214E-2,1.6810708E-1,7.425778E-2,-1.6135E3,1.6087478E-1,2.1000001E-1],"split_indices":[106,829,974,1659,27,597,104,14,0,314,0,0,0,28,117,0,0,0,0,0,0,40,124,0,0,0,610,0,0],"split_type":[0,0,0,0,0,0,0,0,0,0,0,0,0,0,0,0,0,0,0,0,0,0,0,0,0,0,0,0,0],"sum_hessian":[6.408757E5,2.3760176E2,6.4063806E5,8.882608E1,1.4877568E2,1.0678251E2,6.4053125E5,6.013942E1,2.8686663E1,1.4014377E2,8.631904E0,2.5809362E1,8.0973145E1,5.4818176E1,6.4047644E5,2.5933955E0,5.7546024E1,3.7318565E1,1.0282521E2,3.1799765E1,2.301841E1,5.8283016E1,6.404182E5,2.1914288E1,3.636873E1,7.7306643E0,6.4041044E5,5.4668724E1,6.4035575E5],"tree_param":{"num_deleted":"0","num_feature":"1820","num_nodes":"29","size_leaf_vector":"0"}},{"base_weights":[7E-1,4.3317536E-1,7E-1,7E-1,3.5110387E-1,3.8039833E-1,7E-1,2.5983596E-1,7E-1,1.9231685E-1,4.1306198E-1,7E-1,2.6755756E-1,4.772679E-1,7E-1,3.1864285E-1,5.2155327E-2,7E-1,2.719518E-1,3.915421E-1,1.5979865E-1,3.9263213E-1,7E-1,2.719518E-1,7E-1,3.6049262E-1,1.9473971E-1,3.5883948E-1,6.925816E-1,3.72254E-1,7E-1,9.176912E-2,1.9822776E-1,5.270338E-1,3.511767E-1,1.8019828E-1,7E-1,5.52463E-1,3.4629643E-1,7E-1,3.6833742E-1,4.201531E-1,5.8594793E-2,4.8051307E-1,7E-1,1.7768277E-1,6.581824E-2,8.204246E-2,2.2548552E-1,7E-1,3.7265438E-1,3.7972507E-1,1.6132762E-1,1.9298446E-1,6.3282795E-2,3.7830117E-1,7E-1,7E-1,3.4452114E-1,3.2356498E-1,7E-1],"categories":[],"categories_nodes":[],"categories_segments":[],"categories_sizes":[],"default_left":[true,true,true,true,true,true,true,true,true,true,true,true,true,true,true,false,false,false,false,false,true,true,false,false,false,false,true,true,true,true,true,true,true,true,true,true,false,false,false,false,false,true,false,true,true,false,false,false,false,false,false,false,false,false,false,false,false,false,false,false,false],"id":6,"left_children":[1,3,5,7,9,11,13,15,17,19,21,23,25,27,29,-1,-1,-1,-1,-1,31,33,-1,-1,-1,-1,35,37,39,41,43,45,47,49,51,53,-1,-1,-1,-1,-1,55,-1,57,59,-1,-1,-1,-1,-1,-1,-1,-1,-1,-1,-1,-1,-1,-1,-1,-1],"loss_changes":[7.3125E1,3.69684E1,3.95E1,2.4546509E0,8.88604E0,1.8241356E1,1.175E1,1.6900313E-1,3.4361267E-1,1.6066132E0,6.1170044E0,3.436165E-1,2.05966E0,6.022434E0,5.125E0,0E0,0E0,0E0,0E0,0E0,5.652909E-1,3.383278E0,0E0,0E0,0E0,0E0,1.2136507E0,1.9905281E-1,3.1294174E0,7.6210976E-1,5E0,1.7208016E-1,4.3044615E-1,4.6063423E0,2.6078606E0,2.4952698E-1,0E0,0E0,0E0,0E0,0E0,2.822404E-1,0E0,5.0523834E0,3.375E0,0E0,0E0,0E0,0E0,0E0,0E0,0E0,0E0,0E0,0E0,0E0,0E0,0E0,0E0,0E0,0E0],"parents":[2147483647,0,0,1,1,2,2,3,3,4,4,5,5,6,6,7,7,8,8,9,9,10,10,11,11,12,12,13,13,14,14,20,20,21,21,26,26,27,27,28,28,29,29,30,30,31,31,32,32,33,33,34,34,35,35,41,41,43,43,44,44],"right_children":[2,4,6,8,10,12,14,16,18,20,22,24,26,28,30,-1,-1,-1,-1,-1,32,34,-1,-1,-1,-1,36,38,40,42,44,46,48,50,52,54,-1,-1,-1,-1,-1,56,-1,58,60,-1,-1,-1,-1,-1,-1,-1,-1,-1,-1,-1,-1,-1,-1,-1,-1],"split_conditions":[2.1255E3,1.331E3,-1.525E3,1.5E0,-1.6465E3,2.755E2,-1.2355E3,9.46E2,8.575E2,-1.0604E4,3.0775E3,1.555E2,-1.2975E3,-3.97E2,2.7045E3,9.5592864E-2,1.56466E-2,2.1000001E-1,8.158554E-2,1.17462635E-1,-9.1645E3,-2.6875E3,2.1000001E-1,8.158554E-2,2.1000001E-1,1.0814779E-1,1.3965E3,3.975E3,-2.1545E3,1.5085E3,-1.4625E3,1.07E2,-1.6835E3,3.741E3,6.7915E3,1.3665E3,2.1000001E-1,1.6573891E-1,1.0388894E-1,2.1000001E-1,1.1050123E-1,9.685E2,1.7578438E-2,1.505E2,1.929E3,5.3304832E-2,1.9745473E-2,2.461274E-2,6.764566E-2,2.1000001E-1,1.1179632E-1,1.1391752E-1,4.8398286E-2,5.789534E-2,1.898484E-2,1.1349036E-1,2.1000001E-1,2.1000001E-1,1.0335635E-1,9.7069494E-2,2.1000001E-1],"split_indices":[120,809,766,1807,1455,635,805,0,21,315,1239,23,597,1012,117,0,0,0,0,0,132,1446,0,0,0,0,1,305,642,0,597,375,1078,655,629,1233,0,0,0,0,0,0,0,1087,119,0,0,0,0,0,0,0,0,0,0,0,0,0,0,0,0],"split_type":[0,0,0,0,0,0,0,0,0,0,0,0,0,0,0,0,0,0,0,0,0,0,0,0,0,0,0,0,0,0,0,0,0,0,0,0,0,0,0,0,0,0,0,0,0,0,0,0,0,0,0,0,0,0,0,0,0,0,0,0,0],"sum_hessian":[7.905785E5,1.0309823E3,7.895475E5,1.2068538E2,9.1029694E2,3.9181985E2,7.891557E5,1.4198654E1,1.06486725E2,2.5665137E2,6.5364557E2,7.80926E1,3.1372723E2,2.4492679E2,7.8891075E5,1.0648991E1,3.5496635E0,1.0293706E2,3.5496635E0,3.446404E1,2.2218733E2,6.3944696E2,1.4198654E1,3.5496635E0,7.454294E1,1.3608974E2,1.7763751E2,1.5973486E2,8.5191925E1,5.1364788E1,7.888594E5,8.14275E1,1.4075983E2,1.4797786E2,4.914691E2,1.7408784E2,3.5496635E0,7.099327E0,1.5263553E2,5.3244953E1,3.1946972E1,4.426546E1,7.099327E0,1.10039566E2,7.887494E5,1.7533556E1,6.3893944E1,2.750984E1,1.1324999E2,5.982341E1,8.815445E1,4.263561E2,6.511298E1,1.5633954E2,1.7748318E1,4.0715797E1,3.5496635E0,2.4847645E1,8.5191925E1,2.764912E1,7.887217E5],"tree_param":{"num_deleted":"0","num_feature":"1820","num_nodes":"61","size_leaf_vector":"0"}},{"base_weights":[7E-1,3.6879778E-1,7E-1,6.795292E-1,2.4443012E-1,4.7205934E-1,7E-1,2.1759401E-1,7E-1,1.6451596E-1,3.183935E-1,7E-1,3.1283242E-1,4.029561E-1,7E-1,1.82526E-1,2.5379962E-1,7E-1,4.5375195E-1,2.867571E-1,1.21299386E-1,7E-1,3.0050382E-1,7E-1,2.2533296E-1,2.841903E-1,6.7253995E-1,3.1666756E-1,7E-1,7E-1,3.678562E-1,7E-1,3.2177362E-1,4.9501702E-1,1.5328307E-1,2.5591668E-1,5.288195E-1,1.507959E-1,3.885762E-2,7E-1,2.0582727E-1,2.856769E-1,5.6882244E-1,7E-1,3.9432412E-1,1.9104058E-1,3.019891E-1,5.957036E-1,2.6841894E-1,4.052675E-1,7E-1,4.13971E-1,2.1427566E-1,7E-1,3.7411955E-1,3.8133052E-1,7E-1,6.505113E-1,2.530625E-1,3.2914612E-1,7E-1,2.2880949E-1,3.7411955E-1,4.0835828E-1,5.9953314E-1,8.185911E-2,1.6916549E-1,2.799812E-1,1.9090384E-1,1.3305973E-1,2.43233E-1,-3.1100048E-2,9.063273E-2,2.1754429E-1,3.4235176E-1,6.170113E-1,2.241511E-1,4.4230607E-1,7E-1,7E-1,4.236856E-1,2.5875878E-1,5.427615E-1,2.5876078E-1,2.3741594E-2,6.7369664E-1,2.164447E-1,3.218556E-1,7E-1,3.2822523E-1,7E-1,1.9504523E-1,4.0752947E-1],"categories":[],"categories_nodes":[],"categories_segments":[],"categories_sizes":[],"default_left":[true,true,true,true,true,true,true,true,true,true,true,true,true,true,true,false,false,true,true,true,true,true,true,true,true,true,true,true,true,true,true,true,true,true,true,true,false,true,true,false,false,true,true,true,false,false,false,true,true,false,false,false,true,false,false,true,true,true,true,false,false,false,false,false,false,false,false,false,false,false,false,false,false,false,false,false,false,false,false,false,false,false,false,false,false,false,false,false,false,false,false,false,false],"id":7,"left_children":[1,3,5,7,9,11,13,15,17,19,21,23,25,27,29,-1,-1,31,33,35,37,39,41,43,45,47,49,51,53,55,57,59,61,63,65,67,-1,69,71,-1,-1,73,75,77,-1,-1,-1,79,81,-1,-1,-1,83,-1,-1,85,87,89,91,-1,-1,-1,-1,-1,-1,-1,-1,-1,-1,-1,-1,-1,-1,-1,-1,-1,-1,-1,-1,-1,-1,-1,-1,-1,-1,-1,-1,-1,-1,-1,-1,-1,-1],"loss_changes":[1.62625E2,5.7328964E1,6.775E1,1.2202026E1,6.237076E0,6.74639E1,2.9E1,2.3891449E-2,5.3480988E0,2.6781254E0,3.7866135E0,1.3085205E1,9.170723E0,1.2043598E1,2.5375E1,0E0,0E0,2.0441132E0,1.1178589E0,8.605261E-1,9.2095995E-1,7.256546E-1,1.9462242E0,1.2401428E0,1.00692034E-1,3.9836502E0,2.5901127E0,2.7595901E0,5.463028E-1,2.1625E1,7.398609E0,1.92453E0,6.00338E-4,5.178299E-1,9.83566E-4,1.3469982E-1,0E0,4.2727184E-1,3.7146717E-1,0E0,0E0,1.8728371E0,3.059492E-1,1.0303955E0,0E0,0E0,0E0,4.4546032E-1,1.9918137E0,0E0,0E0,0E0,1.1921263E0,0E0,0E0,1.03694E1,1.5875E1,3.1165028E0,1.4207783E0,0E0,0E0,0E0,0E0,0E0,0E0,0E0,0E0,0E0,0E0,0E0,0E0,0E0,0E0,0E0,0E0,0E0,0E0,0E0,0E0,0E0,0E0,0E0,0E0,0E0,0E0,0E0,0E0,0E0,0E0,0E0,0E0,0E0,0E0],"parents":[2147483647,0,0,1,1,2,2,3,3,4,4,5,5,6,6,7,7,8,8,9,9,10,10,11,11,12,12,13,13,14,14,17,17,18,18,19,19,20,20,21,21,22,22,23,23,24,24,25,25,26,26,27,27,28,28,29,29,30,30,31,31,32,32,33,33,34,34,35,35,37,37,38,38,41,41,42,42,43,43,47,47,48,48,52,52,55,55,56,56,57,57,58,58],"right_children":[2,4,6,8,10,12,14,16,18,20,22,24,26,28,30,-1,-1,32,34,36,38,40,42,44,46,48,50,52,54,56,58,60,62,64,66,68,-1,70,72,-1,-1,74,76,78,-1,-1,-1,80,82,-1,-1,-1,84,-1,-1,86,88,90,92,-1,-1,-1,-1,-1,-1,-1,-1,-1,-1,-1,-1,-1,-1,-1,-1,-1,-1,-1,-1,-1,-1,-1,-1,-1,-1,-1,-1,-1,-1,-1,-1,-1,-1],"split_conditions":[3.4535E3,3.974E3,-1.2985E3,3.985E2,1.754E3,8.915E2,2.132E3,1.171E3,1.08E3,2.318E3,1.4415E3,-1.34725E4,1.1755E3,2.617E3,6.4905E3,5.4757804E-2,7.613989E-2,1.243E3,2.761E3,2.876E3,7.55E1,5.405E2,4.26E2,-4.75E2,1.5375E3,2.1565E3,2.44E2,-2.5465E3,4.416E3,-1.494E3,1.005E2,5.465E2,6.135E2,5.55E1,9.81E2,3.19E2,1.5864585E-1,9.21E2,-1.628E3,2.1000001E-1,6.174818E-2,-1.315E2,3.261E3,4.515E2,1.1829724E-1,5.7312176E-2,9.0596735E-2,-1.70105E4,8.035E2,1.2158026E-1,2.1000001E-1,1.2419131E-1,-3.335E3,2.1000001E-1,1.1223587E-1,1.015E2,1.951E3,5.975E2,9.405E2,9.874384E-2,2.1000001E-1,6.864285E-2,1.1223587E-1,1.2250749E-1,1.7985995E-1,2.4557734E-2,5.074965E-2,8.399436E-2,5.7271156E-2,3.991792E-2,7.29699E-2,-9.330015E-3,2.718982E-2,6.5263286E-2,1.0270553E-1,1.851034E-1,6.7245334E-2,1.3269183E-1,2.1000001E-1,2.1000001E-1,1.2710568E-1,7.762764E-2,1.6282846E-1,7.762824E-2,7.1224784E-3,2.02109E-1,6.493341E-2,9.6556686E-2,2.1000001E-1,9.846757E-2,2.1000001E-1,5.851357E-2,1.2225885E-1],"split_indices":[104,745,597,1348,875,576,122,34,1547,855,73,78,737,859,829,0,0,412,178,60,1729,2,547,284,174,300,1618,641,123,766,561,1309,0,1713,0,535,0,1589,1091,0,0,1170,12,1581,0,0,0,280,1146,0,0,0,212,0,0,1024,119,153,947,0,0,0,0,0,0,0,0,0,0,0,0,0,0,0,0,0,0,0,0,0,0,0,0,0,0,0,0,0,0,0,0,0,0],"split_type":[0,0,0,0,0,0,0,0,0,0,0,0,0,0,0,0,0,0,0,0,0,0,0,0,0,0,0,0,0,0,0,0,0,0,0,0,0,0,0,0,0,0,0,0,0,0,0,0,0,0,0,0,0,0,0,0,0,0,0,0,0,0,0,0,0,0,0,0,0,0,0,0,0,0,0,0,0,0,0,0,0,0,0,0,0,0,0,0,0,0,0,0,0],"sum_hessian":[9.751102E5,1.4867765E3,9.7362344E5,4.2370065E2,1.0630758E3,1.3126877E3,9.7231075E5,5.430346E1,3.693972E2,5.125319E2,5.505439E2,4.0501404E2,9.076737E2,3.3305533E2,9.719777E5,3.0653996E1,2.3649464E1,2.7411917E2,9.527802E1,1.3239836E2,3.8013354E2,2.1494534E1,5.290494E2,3.4576263E2,5.92514E1,8.4238776E2,6.528596E1,2.8488477E2,4.8170567E1,9.7174556E5,2.3209454E2,2.5740494E2,1.6714214E1,8.3203705E1,1.2074318E1,1.19260925E2,1.3137426E1,2.7935504E2,1.0077852E2,1.751657E1,3.9779654E0,5.0330225E2,2.5747118E1,3.2824606E2,1.751657E1,4.335055E1,1.5900849E1,3.8821503E1,8.035663E2,3.503314E1,3.025282E1,1.4451169E2,1.4037306E2,3.941228E1,8.758285E0,2.1712637E2,9.7152844E5,6.568713E1,1.6640741E2,1.6556055E1,2.4084889E2,7.9559307E0,8.758285E0,4.8170567E1,3.503314E1,3.3160331E0,8.758285E0,8.462897E1,3.463196E1,2.3642995E2,4.292509E1,4.303273E1,5.7745785E1,2.3074588E2,2.725564E2,2.1895712E1,3.8514063E0,2.1895712E1,3.0635037E2,2.1895712E1,1.6925793E1,7.781106E2,2.545564E1,1.1351253E2,2.6860535E1,7.718337E1,1.3994301E2,1.1323743E2,9.714152E5,2.6274853E1,3.941228E1,1.2261598E2,4.3791424E1],"tree_param":{"num_deleted":"0","num_feature":"1820","num_nodes":"93","size_leaf_vector":"0"}},{"base_weights":[7E-1,7E-1,6.52061E-1,6.559055E-1,7E-1,6.566554E-1,3.0156955E-1,6.6588664E-1,3.384263E-1,1.6694479E-1,7E-1,6.3336474E-1,7E-1,2.4694456E-1,5.6935704E-1,7E-1,6.369968E-1,6.796845E-1,2.2578204E-1,1.327822E-1,5.181174E-1,7E-1,6.782643E-1,6.930425E-1,6.2122303E-1,6.5257645E-1,7E-1,4.942451E-1,2.0926248E-1,3.6076158E-1,6.335417E-1,2.0358443E-1,7E-1,6.4000106E-1,3.0867505E-1,7E-1,4.0301937E-1,4.8240378E-1,1.7421094E-1,1.9548869E-1,5.6960877E-2,4.837596E-1,7E-1,6.3850605E-1,7E-1,6.087804E-1,7E-1,5.246535E-1,6.2625164E-1,6.3540226E-1,7E-1,6.3475716E-1,7E-1,4.0345767E-1,6.489111E-1,3.8305125E-1,1.844098E-1,6.991977E-1,3.0747515E-1,4.732994E-1,7E-1,3.3314797E-1,-1.2260075E-1,7E-1,1.6942309E-1,6.3254946E-1,7E-1,1.0306196E-1,6.031642E-1,2.231652E-1,7E-1,3.191991E-1,7E-1,7E-1,3.696058E-1,4.0664676E-1,1.4553598E-1,1.241913E-1,2.1459511E-1,6.60609E-1,7.42166E-2,7E-1,3.4324965E-1,6.2805E-1,7E-1,6.258583E-1,7E-1,-5.1391292E-2,6.13645E-1,6.5891147E-1,7E-1,5.5175626E-1,1.8857159E-1,7E-1,6.238765E-1,7E-1,6.2366617E-1,6.166419E-1,7E-1,7E-1,5.940219E-1,2.8818938E-1,7E-1,1.7828868E-1,4.568982E-1,7E-1,4.369376E-1,1.75316E-1,4.4645104E-1,9.4999805E-2,2.1498787E-1,2.2509798E-1,4.5278633E-1,5.727606E-1,2.9802403E-1,7E-1,4.0527335E-1],"categories":[],"categories_nodes":[],"categories_segments":[],"categories_sizes":[],"default_left":[true,true,true,true,true,true,true,true,true,true,true,true,true,true,true,true,true,true,true,true,false,true,true,true,true,true,true,true,true,true,true,true,true,true,true,true,true,true,true,true,false,true,true,true,true,true,true,true,true,true,true,true,true,true,true,true,true,false,true,true,true,false,false,false,false,false,false,false,false,false,false,false,false,false,false,false,false,false,false,false,false,false,false,false,false,false,false,false,false,false,false,false,false,false,false,false,false,false,false,false,false,false,false,false,false,false,false,false,false,false,false,false,false,false,false,false,false],"id":8,"left_children":[1,3,5,7,9,11,13,15,17,19,21,23,25,27,29,31,33,35,37,39,-1,41,43,45,47,49,51,53,55,57,59,61,63,65,67,69,71,73,75,77,-1,79,81,83,85,87,89,91,93,95,97,99,101,103,105,107,109,-1,111,113,115,-1,-1,-1,-1,-1,-1,-1,-1,-1,-1,-1,-1,-1,-1,-1,-1,-1,-1,-1,-1,-1,-1,-1,-1,-1,-1,-1,-1,-1,-1,-1,-1,-1,-1,-1,-1,-1,-1,-1,-1,-1,-1,-1,-1,-1,-1,-1,-1,-1,-1,-1,-1,-1,-1,-1,-1],"loss_changes":[9.3275E2,1.006875E2,6.537656E2,1.6483594E2,2.1125E1,5.62125E2,7.675079E1,7.226758E1,6.0959488E1,8.4420705E-1,1.90625E1,2.1429688E2,9.084766E1,4.0598053E1,1.1684906E1,2.784082E1,3.248535E1,1.3611862E1,1.57541275E1,3.2500947E-1,0E0,1.88125E1,7.9921875E1,5.8626953E1,1.19234375E2,5.451172E1,2.8328125E1,7.8372345E0,1.6306976E1,3.6027508E0,7.5585327E0,4.899558E0,1.2823242E1,2.1524414E1,1.8247332E1,2.1940765E0,3.9979687E0,5.366356E0,6.5929947E0,2.5503635E-2,0E0,2.9761131E1,1.875E1,1.7381836E1,1.872754E1,2.3783936E1,2.8527344E1,1.1096387E2,5.2171875E1,3.33125E1,8.48877E0,2.4947754E1,2.5328125E1,4.323761E0,3.8868637E0,6.1577225E0,9.054764E0,0E0,2.108797E0,3.576908E0,4.758911E0,0E0,0E0,0E0,0E0,0E0,0E0,0E0,0E0,0E0,0E0,0E0,0E0,0E0,0E0,0E0,0E0,0E0,0E0,0E0,0E0,0E0,0E0,0E0,0E0,0E0,0E0,0E0,0E0,0E0,0E0,0E0,0E0,0E0,0E0,0E0,0E0,0E0,0E0,0E0,0E0,0E0,0E0,0E0,0E0,0E0,0E0,0E0,0E0,0E0,0E0,0E0,0E0,0E0,0E0,0E0,0E0],"parents":[2147483647,0,0,1,1,2,2,3,3,4,4,5,5,6,6,7,7,8,8,9,9,10,10,11,11,12,12,13,13,14,14,15,15,16,16,17,17,18,18,19,19,21,21,22,22,23,23,24,24,25,25,26,26,27,27,28,28,29,29,30,30,31,31,32,32,33,33,34,34,35,35,36,36,37,37,38,38,39,39,41,41,42,42,43,43,44,44,45,45,46,46,47,47,48,48,49,49,50,50,51,51,52,52,53,53,54,54,55,55,56,56,58,58,59,59,60,60],"right_children":[2,4,6,8,10,12,14,16,18,20,22,24,26,28,30,32,34,36,38,40,-1,42,44,46,48,50,52,54,56,58,60,62,64,66,68,70,72,74,76,78,-1,80,82,84,86,88,90,92,94,96,98,100,102,104,106,108,110,-1,112,114,116,-1,-1,-1,-1,-1,-1,-1,-1,-1,-1,-1,-1,-1,-1,-1,-1,-1,-1,-1,-1,-1,-1,-1,-1,-1,-1,-1,-1,-1,-1,-1,-1,-1,-1,-1,-1,-1,-1,-1,-1,-1,-1,-1,-1,-1,-1,-1,-1,-1,-1,-1,-1,-1,-1,-1,-1],"split_conditions":[2.175E2,5.0435E3,6.005E2,5.065E2,-6.01E2,9.7035E3,4.704E3,1.2515E3,1.0915E3,5.9385E3,9.95E1,8.755E2,3.975E2,-9.4E2,1.665E3,-2.8087E4,8.805E2,-6.115E2,-2.16415E4,1.8865E3,1.5543523E-1,-9.78E2,8.4185E3,-1.4589E4,2.8405E3,-8.988E3,6.9625E3,4.765E2,-1.7843E4,3.985E2,-7.6395E3,6.1995E3,4.135E2,1.7085E3,6.855E2,-6.918E3,1.326E3,2.76E2,2.58E2,2.1705E3,1.7088264E-2,2.322E3,5.365E2,6.855E2,3.125E2,2.935E2,6.2675E3,-1.0789E4,1.775E2,4.095E2,1.985E2,8.455E2,3.75E1,1.469E3,1.249E3,3.365E2,1.0475E3,2.0975932E-1,-1.3955E3,7.855E2,8.565E2,9.99444E-2,-3.6780227E-2,2.1000001E-1,5.082693E-2,1.8976484E-1,2.1000001E-1,3.0918589E-2,1.8094927E-1,6.694956E-2,2.1000001E-1,9.575973E-2,2.1000001E-1,2.1000001E-1,1.10881746E-1,1.2199403E-1,4.3660793E-2,3.7257392E-2,6.437854E-2,1.9818272E-1,2.226498E-2,2.1000001E-1,1.029749E-1,1.8841502E-1,2.1000001E-1,1.877575E-1,2.1000001E-1,-1.5417389E-2,1.840935E-1,1.9767345E-1,2.1000001E-1,1.6552688E-1,5.657148E-2,2.1000001E-1,1.8716297E-1,2.1000001E-1,1.8709986E-1,1.8499257E-1,2.1000001E-1,2.1000001E-1,1.7820658E-1,8.645682E-2,2.1000001E-1,5.3486608E-2,1.3706946E-1,2.1000001E-1,1.3108128E-1,5.2594803E-2,1.3393532E-1,2.8499942E-2,6.449637E-2,6.7529395E-2,1.358359E-1,1.7182818E-1,8.940721E-2,2.1000001E-1,1.2158201E-1],"split_indices":[1177,107,1407,1406,674,105,334,1006,1465,12,1172,1564,1290,1077,49,274,777,1441,327,49,0,805,122,254,38,65,117,1679,147,151,59,25,989,924,882,211,1355,467,1192,63,0,1234,1440,1783,1353,232,122,130,1557,1569,1451,1084,1119,1135,232,101,1434,0,1130,579,870,0,0,0,0,0,0,0,0,0,0,0,0,0,0,0,0,0,0,0,0,0,0,0,0,0,0,0,0,0,0,0,0,0,0,0,0,0,0,0,0,0,0,0,0,0,0,0,0,0,0,0,0,0,0,0,0],"split_type":[0,0,0,0,0,0,0,0,0,0,0,0,0,0,0,0,0,0,0,0,0,0,0,0,0,0,0,0,0,0,0,0,0,0,0,0,0,0,0,0,0,0,0,0,0,0,0,0,0,0,0,0,0,0,0,0,0,0,0,0,0,0,0,0,0,0,0,0,0,0,0,0,0,0,0,0,0,0,0,0,0,0,0,0,0,0,0,0,0,0,0,0,0,0,0,0,0,0,0,0,0,0,0,0,0,0,0,0,0,0,0,0,0,0,0,0,0],"sum_hessian":[1.2025346E6,7.9641975E5,4.0611488E5,5.2090086E4,7.443297E5,4.0085938E5,5.2554946E3,5.0501293E4,1.5887942E3,7.5102936E1,7.4425456E5,2.9631875E5,1.0454064E5,4.366675E3,8.888198E2,1.7367068E4,3.3134223E4,3.9303934E2,1.1957549E3,6.9700485E1,5.402452E0,7.0282856E5,4.1426E4,5.008567E4,2.4623306E5,4.0611645E4,6.3928996E4,5.7578546E2,3.7908894E3,2.1069563E2,6.781242E2,1.1396725E2,1.7253102E4,3.2832844E4,3.0138245E2,2.3230544E2,1.6073392E2,1.986923E2,9.9706256E2,3.728577E1,3.241471E1,4.1058636E2,7.02418E5,2.64396E4,1.4986401E4,7.395192E3,4.269048E4,1.2192521E4,2.3404055E5,3.506873E4,5.5429155E3,6.7692725E3,5.7159727E4,3.6508984E2,2.1069563E2,4.7248715E2,3.318402E3,2.701226E1,1.8368336E2,2.1397049E2,4.641537E2,8.1552536E1,3.241471E1,1.720681E4,4.6291576E1,3.0817727E4,2.0151146E3,1.7826637E2,1.2311607E2,1.0804904E1,2.2150053E2,1.283192E2,3.241471E1,5.942697E1,1.3926534E2,1.0804904E2,8.890135E2,9.465255E0,2.7820515E1,2.8632996E2,1.2425639E2,7.022672E5,1.5081148E2,2.2765934E4,3.6736672E3,3.4953865E3,1.1491016E4,5.402452E1,7.3411675E3,1.7185979E4,2.5504502E4,1.1282057E4,9.104651E2,5.2890005E3,2.2875155E5,4.1539062E3,3.0914822E4,1.291186E3,4.2517295E3,1.9394802E3,4.829792E3,1.5126866E2,5.7008457E4,7.086021E1,2.9422964E2,1.4046375E2,7.023187E1,1.1136262E2,3.611245E2,8.4671674E2,2.4716853E3,1.1885394E2,6.482942E1,1.350613E2,7.890919E1,4.047267E2,5.942697E1],"tree_param":{"num_deleted":"0","num_feature":"1820","num_nodes":"117","size_leaf_vector":"0"}},{"base_weights":[7E-1,4.7661194E-1,7E-1,4.5625266E-1,7E-1,5.670526E-1,7E-1,6.164678E-1,4.4667852E-1,4.9084127E-1,7E-1,5.188763E-1,7E-1,5.645965E-1,7E-1,5.545726E-1,7E-1,5.0439376E-1,4.3793517E-1,5.835805E-1,4.582286E-1,5.8117586E-1,7E-1,7E-1,5.008715E-1,5.470328E-1,7E-1,7E-1,5.233606E-1,7E-1,4.271659E-1,5.965923E-1,4.8849475E-1,5.68318E-1,7E-1,4.972895E-1,7E-1,4.4009608E-1,2.3208715E-1,5.178918E-1,7E-1,4.4985896E-1,6.246221E-1,5.1859534E-1,7E-1,7E-1,4.92945E-1,5.2717423E-1,7E-1,4.8882875E-1,6.7588407E-1,5.105967E-1,7E-1,5.873465E-1,7E-1,3.823748E-1,7E-1,6.710217E-1,4.9848387E-1,4.737626E-1,7E-1,7E-1,3.8488218E-1,6.933948E-1,5.5785125E-1,4.3461177E-1,5.2592635E-1,5.323625E-1,7E-1,7E-1,4.8665595E-1,4.603241E-1,5.3332824E-1,5.0649923E-1,7E-1,7E-1,4.3906674E-1,5.1001734E-1,2.062139E-1,6.299101E-1,4.638339E-1,7E-1,3.615154E-1,4.4436854E-1,6.842068E-1,7E-1,4.3502674E-1,4.8414254E-1,6.663614E-1,7E-1,4.199694E-1,7E-1,5.0815165E-1,3.7213406E-1,6.7056954E-1,4.6528703E-1,7E-1,7E-1,3.8631713E-1,4.5306003E-1,5.317597E-1,7E-1,4.735077E-1,7E-1,4.929793E-1,7E-1,4.6578956E-1,7E-1,5.0663066E-1,7E-1,1.289148E-1,3.0767807E-1,7E-1,7E-1,2.5020224E-1,7E-1,5.0148374E-1,4.890957E-1,7E-1,7E-1,4.2269623E-1,2.458265E-1,7E-1,7E-1,4.796908E-1,1.3428721E-1,4.3532583E-1],"categories":[],"categories_nodes":[],"categories_segments":[],"categories_sizes":[],"default_left":[true,true,true,true,true,true,true,true,true,true,true,true,true,true,true,true,true,true,true,true,true,true,true,true,true,true,true,true,true,true,true,true,true,true,true,true,true,true,true,true,true,true,true,true,true,true,true,true,true,true,true,true,true,true,true,true,true,true,true,true,true,true,true,false,false,false,false,false,false,false,false,false,false,false,false,false,false,false,false,false,false,false,false,false,false,false,false,false,false,false,false,false,false,false,false,false,false,false,false,false,false,false,false,false,false,false,false,false,false,false,false,false,false,false,false,false,false,false,false,false,false,false,false,false,false,false,false],"id":9,"left_children":[1,3,5,7,9,11,13,15,17,19,21,23,25,27,29,31,33,35,37,39,41,43,45,47,49,51,53,55,57,59,61,63,65,67,69,71,73,75,77,79,81,83,85,87,89,91,93,95,97,99,101,103,105,107,109,111,113,115,117,119,121,123,125,-1,-1,-1,-1,-1,-1,-1,-1,-1,-1,-1,-1,-1,-1,-1,-1,-1,-1,-1,-1,-1,-1,-1,-1,-1,-1,-1,-1,-1,-1,-1,-1,-1,-1,-1,-1,-1,-1,-1,-1,-1,-1,-1,-1,-1,-1,-1,-1,-1,-1,-1,-1,-1,-1,-1,-1,-1,-1,-1,-1,-1,-1,-1,-1],"loss_changes":[4.3780625E4,4.0864688E3,2.5401875E3,1.2355781E3,1.1218086E3,1.1860508E3,5.005E2,3.1950977E2,3.8342188E2,7.7322266E1,1.3999414E2,3.7727734E2,1.2660547E2,2.1761523E2,4.575E1,8.333496E1,9.537695E1,1.81E2,2.9358594E2,8.642554E1,2.6157959E1,1.314956E2,5.3945312E1,7.412598E1,2.1786133E2,3.738025E1,5.7316406E1,2.9868408E1,8.432324E1,4.45625E1,8.326263E0,6.864258E1,2.3395996E1,3.456067E1,5.7165527E1,1.2970312E2,4.099939E1,2.561797E2,4.9232758E1,3.2086914E1,2.0939209E1,2.2957275E1,2.1829071E1,4.182959E1,1.2642578E1,3.50625E1,2.699887E1,3.534607E1,3.8683594E1,1.485E2,8.656299E1,1.6814209E1,1.8575989E1,4.872693E1,3.6791992E1,8.287155E0,1.4545166E1,3.5634155E1,4.476465E1,1.3953781E1,3.26875E1,5.2900314E-1,6.946953E0,0E0,0E0,0E0,0E0,0E0,0E0,0E0,0E0,0E0,0E0,0E0,0E0,0E0,0E0,0E0,0E0,0E0,0E0,0E0,0E0,0E0,0E0,0E0,0E0,0E0,0E0,0E0,0E0,0E0,0E0,0E0,0E0,0E0,0E0,0E0,0E0,0E0,0E0,0E0,0E0,0E0,0E0,0E0,0E0,0E0,0E0,0E0,0E0,0E0,0E0,0E0,0E0,0E0,0E0,0E0,0E0,0E0,0E0,0E0,0E0,0E0,0E0,0E0,0E0],"parents":[2147483647,0,0,1,1,2,2,3,3,4,4,5,5,6,6,7,7,8,8,9,9,10,10,11,11,12,12,13,13,14,14,15,15,16,16,17,17,18,18,19,19,20,20,21,21,22,22,23,23,24,24,25,25,26,26,27,27,28,28,29,29,30,30,31,31,32,32,33,33,34,34,35,35,36,36,37,37,38,38,39,39,40,40,41,41,42,42,43,43,44,44,45,45,46,46,47,47,48,48,49,49,50,50,51,51,52,52,53,53,54,54,55,55,56,56,57,57,58,58,59,59,60,60,61,61,62,62],"right_children":[2,4,6,8,10,12,14,16,18,20,22,24,26,28,30,32,34,36,38,40,42,44,46,48,50,52,54,56,58,60,62,64,66,68,70,72,74,76,78,80,82,84,86,88,90,92,94,96,98,100,102,104,106,108,110,112,114,116,118,120,122,124,126,-1,-1,-1,-1,-1,-1,-1,-1,-1,-1,-1,-1,-1,-1,-1,-1,-1,-1,-1,-1,-1,-1,-1,-1,-1,-1,-1,-1,-1,-1,-1,-1,-1,-1,-1,-1,-1,-1,-1,-1,-1,-1,-1,-1,-1,-1,-1,-1,-1,-1,-1,-1,-1,-1,-1,-1,-1,-1,-1,-1,-1,-1,-1,-1],"split_conditions":[-1.3735E3,1.17405E4,-3.0775E3,1.1155E3,-3.2615E3,-1.1725E3,6.0015E3,-3.1905E3,1.7705E3,7.245E2,4.925E2,4.005E2,8.745E2,1.715E2,6.3465E3,1.095E2,6.9985E3,7.558E3,6.015E2,1.853E3,-8.463E3,-1.19E3,-1.219E3,7.865E2,4.6685E3,-3.324E3,6.308E3,5.525E2,4.405E2,2.315E2,1.6115E3,5.745E2,1.3205E3,3.0615E3,2.635E2,7.131E3,4.235E2,4.915E2,-1.056E3,-1.6315E3,-1.232E3,8.475E2,1.761E3,-6.215E3,-1.542E3,-5.475E2,4.655E2,-7.94E2,-6.395E2,7.9675E3,-1.66875E4,-1.139E3,7.465E2,1.775E2,1.168E3,3.077E3,-9.77E2,6.227E3,1.286E3,2.255E2,-4.595E2,2.25E2,3E1,2.0801844E-1,1.6735539E-1,1.3038354E-1,1.577779E-1,1.5970877E-1,2.1000001E-1,2.1000001E-1,1.459968E-1,1.3809724E-1,1.5999848E-1,1.5194978E-1,2.1000001E-1,2.1000001E-1,1.3172002E-1,1.5300521E-1,6.1864175E-2,1.8897304E-1,1.3915017E-1,2.1000001E-1,1.0845462E-1,1.3331057E-1,2.0526205E-1,2.1000001E-1,1.3050802E-1,1.4524277E-1,1.9990842E-1,2.1000001E-1,1.2599082E-1,2.1000001E-1,1.524455E-1,1.1164022E-1,2.0117088E-1,1.3958612E-1,2.1000001E-1,2.1000001E-1,1.15895145E-1,1.3591802E-1,1.5952791E-1,2.1000001E-1,1.4205232E-1,2.1000001E-1,1.4789379E-1,2.1000001E-1,1.3973688E-1,2.1000001E-1,1.519892E-1,2.1000001E-1,3.8674444E-2,9.2303425E-2,2.1000001E-1,2.1000001E-1,7.506067E-2,2.1000001E-1,1.5044513E-1,1.4672871E-1,2.1000001E-1,2.1000001E-1,1.2680888E-1,7.3747955E-2,2.1000001E-1,2.1000001E-1,1.4390725E-1,4.0286165E-2,1.3059776E-1],"split_indices":[848,119,53,1159,52,640,119,52,1160,1106,1341,1081,1322,754,867,1172,119,115,1407,152,266,1599,1481,1284,1368,30,108,1327,1081,1288,255,1133,1219,52,1016,118,1294,1582,1188,1091,337,1561,194,136,1026,141,661,642,336,122,145,1545,1652,1529,1648,194,155,48,1549,1557,220,459,535,0,0,0,0,0,0,0,0,0,0,0,0,0,0,0,0,0,0,0,0,0,0,0,0,0,0,0,0,0,0,0,0,0,0,0,0,0,0,0,0,0,0,0,0,0,0,0,0,0,0,0,0,0,0,0,0,0,0,0,0,0,0,0,0],"split_type":[0,0,0,0,0,0,0,0,0,0,0,0,0,0,0,0,0,0,0,0,0,0,0,0,0,0,0,0,0,0,0,0,0,0,0,0,0,0,0,0,0,0,0,0,0,0,0,0,0,0,0,0,0,0,0,0,0,0,0,0,0,0,0,0,0,0,0,0,0,0,0,0,0,0,0,0,0,0,0,0,0,0,0,0,0,0,0,0,0,0,0,0,0,0,0,0,0,0,0,0,0,0,0,0,0,0,0,0,0,0,0,0,0,0,0,0,0,0,0,0,0,0,0,0,0,0,0],"sum_hessian":[1.4722539E6,8.773355E5,5.949183E5,8.0568425E5,7.1651266E4,1.4374481E5,4.511735E5,4.542765E4,7.602566E5,2.5653057E4,4.5998207E4,1.1361481E5,3.0130002E4,2.7324664E4,4.238488E5,3.0117688E4,1.5309961E4,1.0001258E5,6.6024406E5,6.6697324E3,1.8983324E4,9.948789E3,3.6049418E4,1.0090028E4,1.0352479E5,5.4305815E3,2.469942E4,4.2788574E3,2.3045807E4,4.23229E5,6.198345E2,1.840543E4,1.1712258E4,5.527668E3,9.782293E3,9.754197E4,2.4706123E3,6.5338394E5,6.8601025E3,5.3460864E3,1.3236459E3,1.8077715E4,9.056089E2,8.278804E3,1.6699856E3,3.478063E4,1.2687909E3,2.4971418E3,7.592886E3,9.686336E4,6.661431E3,4.5974707E3,8.3311084E2,4.554173E3,2.0145248E4,2.9991992E2,3.9789375E3,3.3190354E3,1.9726771E4,8.7960846E2,4.2234938E5,6.664887E1,5.531856E2,5.255808E3,1.3149622E4,4.8062495E3,6.9060083E3,4.657639E3,8.7002856E2,8.516568E3,1.2657253E3,4.8158727E4,4.938324E4,1.1070787E3,1.3635337E3,1.3749166E3,6.52009E5,5.82643E2,6.2774595E3,1.7366871E3,3.6093992E3,1.1376089E3,1.86037E2,1.7666707E4,4.110087E2,5.153552E2,3.9025363E2,6.7169663E3,1.5618374E3,1.5035143E3,1.6647128E2,3.3815707E4,9.649211E2,7.570084E2,5.117825E2,2.0039403E3,4.9320163E2,7.1957715E3,3.9711487E2,5.284557E4,4.401779E4,4.8899243E3,1.771507E3,3.4559338E2,4.2518774E3,4.8653674E2,3.4657413E2,1.6928812E3,2.8612917E3,2.0031943E4,1.1330308E2,2.532657E2,4.665421E1,3.9056238E3,7.331376E1,2.332632E3,9.8640326E2,1.9026959E4,6.998131E2,1.0663819E2,7.729703E2,1.5995729E2,4.2218944E5,4.665421E1,1.9994661E1,9.330842E1,4.598772E2],"tree_param":{"num_deleted":"0","num_feature":"1820","num_nodes":"127","size_leaf_vector":"0"}},{"base_weights":[5.42876E-1,7E-1,3.8270783E-1,4.6787593E-1,7E-1,3.549109E-1,6.2289834E-1,7E-1,4.27706E-1,4.9224675E-1,7E-1,4.82717E-1,3.3576876E-1,4.2878097E-1,7E-1,4.5310012E-1,7E-1,7E-1,4.1412646E-1,7E-1,4.4490576E-1,5.3487533E-1,7E-1,4.6238405E-1,7E-1,3.2682046E-1,3.9882112E-1,5.406783E-1,3.6628634E-1,7E-1,4.782541E-1,2.727819E-1,5.1296884E-1,7E-1,3.6517236E-1,7E-1,3.843943E-1,4.061004E-1,7E-1,3.8550374E-1,7E-1,5.7688445E-1,4.0576535E-1,4.6787265E-1,7E-1,5.9502673E-1,7E-1,4.499243E-1,7E-1,7E-1,3.3656955E-1,3.782731E-1,3.2029212E-1,3.8464174E-1,7E-1,4.8487705E-1,7E-1,7E-1,3.5788935E-1,5.381764E-1,7E-1,6.011342E-1,3.9531162E-1,3.3784047E-1,7.662427E-2,6.6148496E-1,4.1828E-1,7E-1,3.5662228E-1,5.0885785E-1,2.875414E-1,7E-1,3.534135E-1,3.2620105E-1,6.9244516E-1,3.8103777E-1,4.6892333E-1,1.654972E-1,7E-1,3.152163E-1,7E-1,7E-1,4.253585E-1,4.7133636E-1,7E-1,7E-1,3.8767523E-1,7E-1,4.37517E-1,3.2944745E-1,7E-1,4.3761468E-1,7E-1,5.255691E-1,7E-1,3.903295E-1,4.812341E-1,4.9101397E-1,7E-1,4.478566E-1,7E-1,2.2854038E-1,6.808009E-1,3.7422162E-1,7E-1,7E-1,3.197225E-1,3.6077428E-1,4.3881986E-1,7E-1,4.6038488E-1,4.2714137E-1,6.1188215E-1,7E-1,4.1490215E-1,7E-1,2.9820812E-1,3.507015E-1,6.167007E-1,7E-1,4.0978086E-1,4.840033E-1,7E-1,4.8883462E-1,7E-1,3.6449248E-1,6.378967E-1],"categories":[],"categories_nodes":[],"categories_segments":[],"categories_sizes":[],"default_left":[true,true,true,true,true,true,true,true,true,true,true,true,true,true,true,true,true,true,true,true,true,true,true,true,true,true,true,true,true,true,true,true,true,true,true,true,true,true,true,true,true,true,true,true,true,true,true,true,true,true,true,true,true,true,true,true,true,true,true,true,true,true,true,false,false,false,false,false,false,false,false,false,false,false,false,false,false,false,false,false,false,false,false,false,false,false,false,false,false,false,false,false,false,false,false,false,false,false,false,false,false,false,false,false,false,false,false,false,false,false,false,false,false,false,false,false,false,false,false,false,false,false,false,false,false,false,false],"id":10,"left_children":[1,3,5,7,9,11,13,15,17,19,21,23,25,27,29,31,33,35,37,39,41,43,45,47,49,51,53,55,57,59,61,63,65,67,69,71,73,75,77,79,81,83,85,87,89,91,93,95,97,99,101,103,105,107,109,111,113,115,117,119,121,123,125,-1,-1,-1,-1,-1,-1,-1,-1,-1,-1,-1,-1,-1,-1,-1,-1,-1,-1,-1,-1,-1,-1,-1,-1,-1,-1,-1,-1,-1,-1,-1,-1,-1,-1,-1,-1,-1,-1,-1,-1,-1,-1,-1,-1,-1,-1,-1,-1,-1,-1,-1,-1,-1,-1,-1,-1,-1,-1,-1,-1,-1,-1,-1,-1],"loss_changes":[9.14945E4,4.9939688E3,8.9045625E3,9.943906E2,7.1715625E2,2.9244219E3,2.6695078E3,3.103457E2,3.468047E2,2.1921265E2,1.1715625E2,7.0077344E2,5.8646875E2,3.3180762E2,8.1590625E2,5.490674E1,1.1483887E2,1.1104724E2,2.3786523E2,4.4305176E1,7.417944E1,6.379663E1,1.0253125E2,5.262578E2,2.0948486E2,3.056953E2,5.6908984E2,1.7192627E2,1.1964453E2,1.22234375E2,1.6898267E2,1.6221344E1,5.354071E1,4.601123E1,1.1328308E1,3.2508057E1,1.9847717E1,1.19674805E2,2.4320068E1,1.3350166E1,2.123169E1,5.7291138E1,8.186072E1,3.385016E1,1.7711304E1,2.2217505E2,6.559375E1,2.5579688E2,6.9184326E1,6.5109375E1,5.8962006E1,1.896123E2,2.809453E2,1.5964062E2,1.419126E2,9.547827E1,5.867627E1,4.5109283E1,5.5621582E1,1.3275378E2,6.933594E1,9.492749E1,7.3897705E1,0E0,0E0,0E0,0E0,0E0,0E0,0E0,0E0,0E0,0E0,0E0,0E0,0E0,0E0,0E0,0E0,0E0,0E0,0E0,0E0,0E0,0E0,0E0,0E0,0E0,0E0,0E0,0E0,0E0,0E0,0E0,0E0,0E0,0E0,0E0,0E0,0E0,0E0,0E0,0E0,0E0,0E0,0E0,0E0,0E0,0E0,0E0,0E0,0E0,0E0,0E0,0E0,0E0,0E0,0E0,0E0,0E0,0E0,0E0,0E0,0E0,0E0,0E0,0E0],"parents":[2147483647,0,0,1,1,2,2,3,3,4,4,5,5,6,6,7,7,8,8,9,9,10,10,11,11,12,12,13,13,14,14,15,15,16,16,17,17,18,18,19,19,20,20,21,21,22,22,23,23,24,24,25,25,26,26,27,27,28,28,29,29,30,30,31,31,32,32,33,33,34,34,35,35,36,36,37,37,38,38,39,39,40,40,41,41,42,42,43,43,44,44,45,45,46,46,47,47,48,48,49,49,50,50,51,51,52,52,53,53,54,54,55,55,56,56,57,57,58,58,59,59,60,60,61,61,62,62],"right_children":[2,4,6,8,10,12,14,16,18,20,22,24,26,28,30,32,34,36,38,40,42,44,46,48,50,52,54,56,58,60,62,64,66,68,70,72,74,76,78,80,82,84,86,88,90,92,94,96,98,100,102,104,106,108,110,112,114,116,118,120,122,124,126,-1,-1,-1,-1,-1,-1,-1,-1,-1,-1,-1,-1,-1,-1,-1,-1,-1,-1,-1,-1,-1,-1,-1,-1,-1,-1,-1,-1,-1,-1,-1,-1,-1,-1,-1,-1,-1,-1,-1,-1,-1,-1,-1,-1,-1,-1,-1,-1,-1,-1,-1,-1,-1,-1,-1,-1,-1,-1,-1,-1,-1,-1,-1,-1],"split_conditions":[6.335E2,-2.527E3,1.42095E4,7.935E2,6.353E3,4.555E2,1.02075E4,8.709E3,6.805E2,9.725E2,2.445E2,1.6225E3,1.06425E4,-6.5E0,1.1175E3,-1.6326E4,-1.381E3,1.047E3,8.035E2,3.015E3,5.255E2,1.66905E4,-4.675E2,-6.1755E3,3.19E2,2.0575E3,-1.849E3,2.556E3,-1.1808E4,2.178E3,4.095E2,3.01E3,3.047E3,-1.4825E3,-1.6085E3,5.32E2,2.4705E3,7.055E2,-3.98E2,-1.4285E3,6.58E2,7.515E2,8.5E1,1.395E2,5.97E2,1.06485E4,2.145E2,1.13905E4,-1.36375E4,5.377E3,-2.72E2,7.8355E3,-1.8655E3,5.755E2,4.465E2,8.845E2,3.5E3,4.1425E3,-6.475E2,6.97E2,7.68E2,6.941E3,2.029E3,1.0135215E-1,2.298728E-2,1.984455E-1,1.25484E-1,2.1000001E-1,1.0698669E-1,1.5265736E-1,8.626242E-2,2.1000001E-1,1.0602405E-1,9.786032E-2,2.0773356E-1,1.1431134E-1,1.40677E-1,4.964916E-2,2.1000001E-1,9.456489E-2,2.1000001E-1,2.1000001E-1,1.2760755E-1,1.4140092E-1,2.1000001E-1,2.1000001E-1,1.1630257E-1,2.1000001E-1,1.312551E-1,9.883424E-2,2.1000001E-1,1.3128442E-1,2.1000001E-1,1.5767074E-1,2.1000001E-1,1.1709886E-1,1.4437024E-1,1.4730419E-1,2.1000001E-1,1.3435699E-1,2.1000001E-1,6.856211E-2,2.0424028E-1,1.1226649E-1,2.1000001E-1,2.1000001E-1,9.5916755E-2,1.0823229E-1,1.3164596E-1,2.1000001E-1,1.3811547E-1,1.2814242E-1,1.8356465E-1,2.1000001E-1,1.2447065E-1,2.1000001E-1,8.946244E-2,1.0521046E-1,1.8501022E-1,2.1000001E-1,1.2293426E-1,1.45201E-1,2.1000001E-1,1.4665039E-1,2.1000001E-1,1.09347746E-1,1.9136903E-1],"split_indices":[1067,53,111,1159,120,1044,124,122,1420,1525,882,1501,118,1176,1041,260,1468,1458,1496,58,1497,123,980,81,1505,1161,26,802,213,889,1583,825,857,1091,1195,322,1667,1373,766,1481,488,663,1427,1079,851,38,895,110,39,48,209,115,1195,1289,1017,1497,828,904,1603,776,782,115,634,0,0,0,0,0,0,0,0,0,0,0,0,0,0,0,0,0,0,0,0,0,0,0,0,0,0,0,0,0,0,0,0,0,0,0,0,0,0,0,0,0,0,0,0,0,0,0,0,0,0,0,0,0,0,0,0,0,0,0,0,0,0,0,0],"split_type":[0,0,0,0,0,0,0,0,0,0,0,0,0,0,0,0,0,0,0,0,0,0,0,0,0,0,0,0,0,0,0,0,0,0,0,0,0,0,0,0,0,0,0,0,0,0,0,0,0,0,0,0,0,0,0,0,0,0,0,0,0,0,0,0,0,0,0,0,0,0,0,0,0,0,0,0,0,0,0,0,0,0,0,0,0,0,0,0,0,0,0,0,0,0,0,0,0,0,0,0,0,0,0,0,0,0,0,0,0,0,0,0,0,0,0,0,0,0,0,0,0,0,0,0,0,0,0],"sum_hessian":[1.7327865E6,3.9904284E5,1.3337436E6,9.269272E4,3.0635012E5,1.1954036E6,1.3834002E5,1.1913455E4,8.0779266E4,1.66272E4,2.8972294E5,1.5571547E5,1.0396881E6,4.747587E4,9.086414E4,5.098053E3,6.8154014E3,3.2425618E3,7.75367E4,2.2228618E3,1.4404338E4,4.311813E3,2.8541112E5,1.4262661E5,1.3088869E4,9.1048025E5,1.2920792E5,1.7010584E4,3.046529E4,7.426189E4,1.6602244E4,1.2721198E3,3.8259336E3,5.787694E3,1.0277075E3,2.1237893E3,1.1187723E3,7.611907E4,1.4176332E3,4.5189825E2,1.7709635E3,3.2915908E3,1.1112747E4,3.3744678E3,9.373451E2,9.348931E3,2.760622E5,1.3719095E5,5.4356504E3,1.1500133E4,1.5887365E3,1.0250873E5,8.079715E5,1.2357726E5,5.6306694E3,1.3055534E4,3.9550498E3,4.5077383E2,3.0014516E4,4.685583E3,6.957631E4,6.6878643E3,9.91438E3,9.54743E2,3.173767E2,1.4872487E3,2.338685E3,5.3943037E3,3.9339005E2,3.5853958E2,6.6916797E2,1.850087E3,2.7370227E2,9.4274023E2,1.7603212E2,5.4417004E4,2.1702064E4,8.5842026E1,1.3317911E3,3.9502853E2,5.6869743E1,1.4839886E3,2.8697482E2,2.058564E3,1.2330269E3,4.059334E2,1.0706813E4,2.3716399E2,3.1373037E3,1.315572E2,8.057879E2,4.729782E3,4.6191484E3,2.1703909E3,2.738918E5,4.7256637E4,8.993432E4,1.5942793E3,3.841371E3,1.0308228E3,1.046931E4,1.2105094E3,3.7822696E2,1.017661E5,7.4262555E2,4.725774E2,8.0749894E5,8.579089E4,3.7786367E4,3.1514492E3,2.4792202E3,8.978385E3,4.0771501E3,3.2281226E3,7.269273E2,1.6931479E2,2.8145905E2,2.9205752E4,8.087619E2,1.6475281E3,3.0380552E3,1.4955466E3,6.8080766E4,3.6050735E3,3.082791E3,8.799015E3,1.1153655E3],"tree_param":{"num_deleted":"0","num_feature":"1820","num_nodes":"127","size_leaf_vector":"0"}},{"base_weights":[4.1563025E-1,7E-1,3.0369398E-1,4.0605232E-1,7E-1,2.7157962E-1,4.858185E-1,7E-1,3.7440896E-1,5.117071E-1,7E-1,2.6235613E-1,4.0498677E-1,3.613537E-1,6.1101526E-1,3.013155E-1,7E-1,7E-1,3.5769564E-1,7E-1,3.977791E-1,5.3852385E-1,7E-1,3.0784565E-1,2.5072658E-1,3.772139E-1,7E-1,2.9233417E-1,4.255146E-1,5.0628406E-1,7E-1,2.1256933E-1,6.1118567E-1,7E-1,2.2624695E-1,2.60187E-1,7E-1,3.1542474E-1,4.5465183E-1,4.2687985E-1,7E-1,5.807618E-1,3.413755E-1,4.4130963E-1,7E-1,3.5567322E-1,7E-1,5.0740427E-1,2.997164E-1,7E-1,2.5004643E-1,6.4610803E-1,3.6565518E-1,7E-1,3.4160495E-1,7E-1,2.8477946E-1,4.071722E-1,7E-1,6.9730526E-1,4.6476468E-1,5.0637525E-1,7E-1,1.892019E-1,5.8390135E-1,3.0140185E-1,7E-1,1.9273758E-1,7E-1,5.732239E-1,1.7195143E-1,4.4215927E-1,1.4545731E-1,2.742869E-1,7E-1,3.094336E-1,7E-1,5.930651E-1,3.4350723E-1,6.913053E-1,2.717999E-1,7E-1,3.6762813E-1,4.1221893E-1,7E-1,3.1947115E-1,7E-1,3.7533328E-1,6.172977E-1,4.029641E-1,7E-1,2.4966662E-1,7E-1,5.6765944E-1,7E-1,3.7916812E-1,7E-1,2.8995398E-1,3.8766077E-1,3.6838865E-1,7E-1,2.496437E-1,7E-1,4.3385607E-1,7E-1,4.406335E-1,3.3021155E-1,3.9102197E-1,7E-1,5.141636E-1,9.6867085E-2,1.6756395E-1,7E-1,7E-1,2.8039882E-1,3.9743626E-1,7E-1,4.5813286E-1,7E-1,4.783128E-1,7E-1,7E-1,4.3772584E-1,7E-1,3.4862337E-1,7E-1,5.1665056E-1],"categories":[],"categories_nodes":[],"categories_segments":[],"categories_sizes":[],"default_left":[true,true,true,true,true,true,true,true,true,true,true,true,true,true,true,true,true,true,true,true,true,true,true,true,true,true,true,true,true,true,true,true,true,true,true,true,true,true,true,true,true,true,true,true,true,true,true,true,true,true,true,true,true,true,true,true,true,true,true,true,true,true,true,false,false,false,false,false,false,false,false,false,false,false,false,false,false,false,false,false,false,false,false,false,false,false,false,false,false,false,false,false,false,false,false,false,false,false,false,false,false,false,false,false,false,false,false,false,false,false,false,false,false,false,false,false,false,false,false,false,false,false,false,false,false,false,false],"id":11,"left_children":[1,3,5,7,9,11,13,15,17,19,21,23,25,27,29,31,33,35,37,39,41,43,45,47,49,51,53,55,57,59,61,63,65,67,69,71,73,75,77,79,81,83,85,87,89,91,93,95,97,99,101,103,105,107,109,111,113,115,117,119,121,123,125,-1,-1,-1,-1,-1,-1,-1,-1,-1,-1,-1,-1,-1,-1,-1,-1,-1,-1,-1,-1,-1,-1,-1,-1,-1,-1,-1,-1,-1,-1,-1,-1,-1,-1,-1,-1,-1,-1,-1,-1,-1,-1,-1,-1,-1,-1,-1,-1,-1,-1,-1,-1,-1,-1,-1,-1,-1,-1,-1,-1,-1,-1,-1,-1],"loss_changes":[9.935159E4,4.8088125E3,9.645781E3,7.388428E2,8.9496875E2,1.7250234E3,3.8520195E3,1.9742407E2,3.0559033E2,7.998867E2,3.379375E2,6.9365625E2,1.0291045E3,5.488662E2,1.8876289E3,3.4111115E1,6.611182E1,1.2258325E2,2.0464111E2,1.34771E2,1.9142725E2,2.965647E2,1.9534375E2,4.329707E2,3.4303125E2,2.6585547E2,1.3704541E2,2.0979297E2,4.0288867E2,6.049824E2,3.408047E2,8.301598E0,2.5300667E1,4.0010254E1,5.491891E0,1.3219086E1,4.359021E1,1.12950195E2,2.3314111E2,7.416919E1,6.834424E1,1.3321265E2,1.2604553E2,1.1002991E2,7.8221436E1,6.0926086E1,1.3459375E2,5.1584644E2,2.2013672E2,6.59361E1,2.9526953E2,1.3036877E2,2.1799902E2,2.774292E1,4.5169983E1,6.460217E1,1.4508203E2,2.6218457E2,8.740796E1,3.3370947E2,4.826123E2,3.290713E2,1.7460547E2,0E0,0E0,0E0,0E0,0E0,0E0,0E0,0E0,0E0,0E0,0E0,0E0,0E0,0E0,0E0,0E0,0E0,0E0,0E0,0E0,0E0,0E0,0E0,0E0,0E0,0E0,0E0,0E0,0E0,0E0,0E0,0E0,0E0,0E0,0E0,0E0,0E0,0E0,0E0,0E0,0E0,0E0,0E0,0E0,0E0,0E0,0E0,0E0,0E0,0E0,0E0,0E0,0E0,0E0,0E0,0E0,0E0,0E0,0E0,0E0,0E0,0E0,0E0,0E0],"parents":[2147483647,0,0,1,1,2,2,3,3,4,4,5,5,6,6,7,7,8,8,9,9,10,10,11,11,12,12,13,13,14,14,15,15,16,16,17,17,18,18,19,19,20,20,21,21,22,22,23,23,24,24,25,25,26,26,27,27,28,28,29,29,30,30,31,31,32,32,33,33,34,34,35,35,36,36,37,37,38,38,39,39,40,40,41,41,42,42,43,43,44,44,45,45,46,46,47,47,48,48,49,49,50,50,51,51,52,52,53,53,54,54,55,55,56,56,57,57,58,58,59,59,60,60,61,61,62,62],"right_children":[2,4,6,8,10,12,14,16,18,20,22,24,26,28,30,32,34,36,38,40,42,44,46,48,50,52,54,56,58,60,62,64,66,68,70,72,74,76,78,80,82,84,86,88,90,92,94,96,98,100,102,104,106,108,110,112,114,116,118,120,122,124,126,-1,-1,-1,-1,-1,-1,-1,-1,-1,-1,-1,-1,-1,-1,-1,-1,-1,-1,-1,-1,-1,-1,-1,-1,-1,-1,-1,-1,-1,-1,-1,-1,-1,-1,-1,-1,-1,-1,-1,-1,-1,-1,-1,-1,-1,-1,-1,-1,-1,-1,-1,-1,-1,-1,-1,-1,-1,-1,-1,-1,-1,-1,-1,-1],"split_conditions":[5.375E2,-2.2865E3,2.1915E3,1.015E2,7.8075E3,2.5325E3,-8.1385E3,9.765E2,1.3585E3,1.82E2,3.05E1,8.595E2,4.5395E3,8.1385E3,-6.832E3,-7.725E3,5.445E2,7.7725E3,-3.763E3,1.1795E3,5.965E2,-2.0835E3,-1.6822E4,5.695E2,-1.8635E3,-2.1738E4,1.475E2,7.985E2,-3.343E3,4.975E2,1.664E3,3.717E3,5.02E2,-1.71E3,8.8035E3,3.095E2,8.8265E3,1.202E3,6.645E2,6.625E2,9.91E2,-7.7E1,4.007E3,1.6876E4,5.16E2,2.4415E3,1.666E3,1.31985E4,1.4135E3,7.35E2,9.0805E3,1.7835E3,-1.7015E3,1.8785E3,1.59E2,-6.3275E3,-1.17965E4,1.0155E3,4.97E2,-4.979E3,-2.1585E4,1.0255E3,9.305E2,5.6760576E-2,1.751704E-1,9.042056E-2,2.1000001E-1,5.7821278E-2,2.1000001E-1,1.7196718E-1,5.1585432E-2,1.3264778E-1,4.3637194E-2,8.2286075E-2,2.1000001E-1,9.2830084E-2,2.1000001E-1,1.7791954E-1,1.0305218E-1,2.0739159E-1,8.153997E-2,2.1000001E-1,1.1028844E-1,1.2366568E-1,2.1000001E-1,9.584135E-2,2.1000001E-1,1.1259999E-1,1.8518932E-1,1.2088923E-1,2.1000001E-1,7.489999E-2,2.1000001E-1,1.7029783E-1,2.1000001E-1,1.1375044E-1,2.1000001E-1,8.69862E-2,1.16298236E-1,1.105166E-1,2.1000001E-1,7.489311E-2,2.1000001E-1,1.3015683E-1,2.1000001E-1,1.3219006E-1,9.906347E-2,1.173066E-1,2.1000001E-1,1.5424909E-1,2.9060127E-2,5.0269186E-2,2.1000001E-1,2.1000001E-1,8.411965E-2,1.1923088E-1,2.1000001E-1,1.3743986E-1,2.1000001E-1,1.4349385E-1,2.1000001E-1,2.1000001E-1,1.3131776E-1,2.1000001E-1,1.0458701E-1,2.1000001E-1,1.5499517E-1],"split_indices":[1067,53,53,1079,120,878,65,1203,321,757,739,1068,1579,118,131,69,1133,122,52,32,1548,1474,267,1133,1195,96,1035,1424,130,1146,50,435,164,272,123,140,110,1547,1151,1420,1148,848,63,123,1243,1402,58,119,32,596,835,1513,1026,676,1440,131,213,1405,947,215,93,825,1067,0,0,0,0,0,0,0,0,0,0,0,0,0,0,0,0,0,0,0,0,0,0,0,0,0,0,0,0,0,0,0,0,0,0,0,0,0,0,0,0,0,0,0,0,0,0,0,0,0,0,0,0,0,0,0,0,0,0,0,0,0,0,0,0],"split_type":[0,0,0,0,0,0,0,0,0,0,0,0,0,0,0,0,0,0,0,0,0,0,0,0,0,0,0,0,0,0,0,0,0,0,0,0,0,0,0,0,0,0,0,0,0,0,0,0,0,0,0,0,0,0,0,0,0,0,0,0,0,0,0,0,0,0,0,0,0,0,0,0,0,0,0,0,0,0,0,0,0,0,0,0,0,0,0,0,0,0,0,0,0,0,0,0,0,0,0,0,0,0,0,0,0,0,0,0,0,0,0,0,0,0,0,0,0,0,0,0,0,0,0,0,0,0,0],"sum_hessian":[1.9744945E6,3.2528816E5,1.6492064E6,5.5658652E4,2.696295E5,1.4019929E6,2.4721353E5,3.3188997E3,5.2339754E4,2.5256055E4,2.4437345E5,1.3113328E6,9.066008E4,1.2397109E5,1.2324244E5,1.2441381E3,2.0747617E3,2.3741738E3,4.9965582E4,6.6902417E3,1.8565812E4,1.2978787E4,2.3139466E5,2.6698462E5,1.0443481E6,8.5611914E4,5.048164E3,5.972689E4,6.4244203E4,7.631951E4,4.692293E4,9.6845935E2,2.7567868E2,1.779017E3,2.9574463E2,6.352503E2,1.7389236E3,3.479844E4,1.5167139E4,1.8122754E3,4.8779663E3,4.3722393E3,1.4193574E4,9.495263E3,3.4835244E3,1.6504902E3,2.2974417E5,1.0447811E4,2.5653681E5,1.4581305E3,1.04289E6,3.5261902E3,8.208573E4,3.9784087E3,1.0697552E3,9.339733E2,5.8792918E4,6.1152016E4,3.0921885E3,1.362378E4,6.2695727E4,9.102545E3,3.7820387E4,9.125437E2,5.5915634E1,1.7506372E2,1.00614944E2,1.5639589E2,1.6226211E3,3.872352E1,2.5702112E2,2.4453706E2,3.9071323E2,2.4222655E2,1.496697E3,3.448268E4,3.1576392E2,6.752998E3,8.414141E3,6.6867163E2,1.1436038E3,4.2558604E3,6.22106E2,2.3641921E3,2.0080471E3,1.3480294E4,7.132802E2,6.9084717E3,2.5867913E3,8.9110956E2,2.5924148E3,1.267334E3,3.831563E2,7.7119785E3,2.2203219E5,8.780577E3,1.6672329E3,2.3090864E5,2.5628174E4,6.030605E2,8.5506995E2,1.04248394E6,4.0605466E2,1.9910616E3,1.5351285E3,2.63445E4,5.5741227E4,2.9473505E2,3.6836736E3,6.2674896E2,4.430063E2,2.2861192E2,7.053614E2,3.9440298E2,5.8398516E4,6.0149113E4,1.0029033E3,1.501534E3,1.5906544E3,6.801246E3,6.8225347E3,5.2378203E3,5.7457906E4,3.6699797E3,5.4325654E3,3.2612828E4,5.2075566E3],"tree_param":{"num_deleted":"0","num_feature":"1820","num_nodes":"127","size_leaf_vector":"0"}},{"base_weights":[3.2428586E-1,7E-1,2.4201176E-1,3.9810848E-1,7E-1,2.2059746E-1,4.3077296E-1,6.3101345E-1,3.397115E-1,4.0064487E-1,7E-1,2.1840344E-1,7E-1,6.545494E-1,3.5822552E-1,7E-1,1.7769706E-1,3.0199936E-1,6.029017E-1,7E-1,2.8572017E-1,2.6787767E-1,7E-1,2.025305E-1,2.837841E-1,1.0631787E-1,7E-1,4.2452955E-1,7E-1,3.4465605E-1,7E-1,3.316541E-1,7E-1,1.615549E-1,7E-1,2.7733094E-1,5.012745E-1,3.3333343E-1,7E-1,7E-1,2.0110813E-1,2.599983E-1,6.276214E-1,1.1745131E-1,5.472712E-1,7E-1,3.9628178E-1,2.7217925E-1,1.9699813E-1,6.107837E-1,2.7360854E-1,1.7018385E-1,-2.1332238E-2,7E-1,8.523667E-2,3.2958958E-1,6.911144E-1,7E-1,3.6014375E-1,2.4779063E-1,3.8964847E-1,7E-1,4.2443419E-1,7E-1,2.668394E-1,7E-1,3.9780098E-1,4.2549703E-1,1.3721961E-1,7E-1,1.8314779E-1,4.0065202E-1,2.5373018E-1,2.9915816E-1,7E-1,7E-1,2.7954373E-1,7E-1,3.3611783E-1,7E-1,-1.8412855E-2,7E-1,1.6230904E-1,2.4813865E-1,7E-1,7E-1,2.5486127E-1,2.6982E-2,2.563176E-1,6.3505226E-1,1.5806928E-1,3.0202842E-1,7E-1,3.2378638E-1,7E-1,7E-1,2.6669246E-1,7E-1,1.9665001E-1,4.0492943E-1,7E-1,2.678033E-1,7E-1,1.4960183E-1,4.1796276E-1,7.2217576E-2,-5.728878E-2,1.3318928E-1,7E-1,-3.7302863E-2,1.4210352E-1,2.9477045E-1,7E-1,7E-1,3.0732244E-1,3.7428507E-1,7E-1,7E-1,2.631346E-1,7E-1,2.4239704E-1,3.6984625E-1,5.8858466E-1,7E-1,2.8205588E-1,7E-1,3.3308664E-1],"categories":[],"categories_nodes":[],"categories_segments":[],"categories_sizes":[],"default_left":[true,true,true,true,true,true,true,true,true,true,true,true,true,true,true,true,true,true,true,true,true,true,true,true,true,true,true,true,true,true,true,true,true,true,true,true,true,true,true,true,true,true,true,true,true,true,true,true,true,true,true,true,true,true,true,true,true,true,true,true,true,true,true,false,false,false,false,false,false,false,false,false,false,false,false,false,false,false,false,false,false,false,false,false,false,false,false,false,false,false,false,false,false,false,false,false,false,false,false,false,false,false,false,false,false,false,false,false,false,false,false,false,false,false,false,false,false,false,false,false,false,false,false,false,false,false,false],"id":12,"left_children":[1,3,5,7,9,11,13,15,17,19,21,23,25,27,29,31,33,35,37,39,41,43,45,47,49,51,53,55,57,59,61,63,65,67,69,71,73,75,77,79,81,83,85,87,89,91,93,95,97,99,101,103,105,107,109,111,113,115,117,119,121,123,125,-1,-1,-1,-1,-1,-1,-1,-1,-1,-1,-1,-1,-1,-1,-1,-1,-1,-1,-1,-1,-1,-1,-1,-1,-1,-1,-1,-1,-1,-1,-1,-1,-1,-1,-1,-1,-1,-1,-1,-1,-1,-1,-1,-1,-1,-1,-1,-1,-1,-1,-1,-1,-1,-1,-1,-1,-1,-1,-1,-1,-1,-1,-1,-1],"loss_changes":[8.394558E4,7.2784375E3,7.5866406E3,1.0860518E3,1.0067344E3,2.4793594E3,3.104289E3,6.752251E2,6.336406E2,4.526416E2,4.6301562E2,1.7444844E3,5.4231104E2,9.9630273E2,7.9892773E2,3.506499E2,3.3265373E1,2.7444287E2,4.998811E2,2.4012769E2,7.466608E1,1.0425505E2,3.8317188E2,5.2114453E2,1.0925059E3,1.2558826E1,2.5815918E1,3.644895E2,3.045371E2,6.097324E2,1.4663892E2,9.456879E1,2.162334E2,1.7347618E1,2.8491707E0,1.4456714E2,2.893274E2,9.8477356E1,8.004907E1,6.0489746E1,3.1155373E1,5.385907E1,3.3706024E1,2.0279028E1,2.9568481E1,2.3323438E2,1.3162793E2,3.0550586E2,2.4783203E2,3.675503E2,9.515156E2,5.1728477E0,1.7346257E0,1.0986328E1,4.9032545E-1,1.4025842E2,1.6310999E2,2.5539062E2,1.0458945E2,1.6810693E2,3.7617188E2,6.5127686E1,7.44382E1,0E0,0E0,0E0,0E0,0E0,0E0,0E0,0E0,0E0,0E0,0E0,0E0,0E0,0E0,0E0,0E0,0E0,0E0,0E0,0E0,0E0,0E0,0E0,0E0,0E0,0E0,0E0,0E0,0E0,0E0,0E0,0E0,0E0,0E0,0E0,0E0,0E0,0E0,0E0,0E0,0E0,0E0,0E0,0E0,0E0,0E0,0E0,0E0,0E0,0E0,0E0,0E0,0E0,0E0,0E0,0E0,0E0,0E0,0E0,0E0,0E0,0E0,0E0,0E0],"parents":[2147483647,0,0,1,1,2,2,3,3,4,4,5,5,6,6,7,7,8,8,9,9,10,10,11,11,12,12,13,13,14,14,15,15,16,16,17,17,18,18,19,19,20,20,21,21,22,22,23,23,24,24,25,25,26,26,27,27,28,28,29,29,30,30,31,31,32,32,33,33,34,34,35,35,36,36,37,37,38,38,39,39,40,40,41,41,42,42,43,43,44,44,45,45,46,46,47,47,48,48,49,49,50,50,51,51,52,52,53,53,54,54,55,55,56,56,57,57,58,58,59,59,60,60,61,61,62,62],"right_children":[2,4,6,8,10,12,14,16,18,20,22,24,26,28,30,32,34,36,38,40,42,44,46,48,50,52,54,56,58,60,62,64,66,68,70,72,74,76,78,80,82,84,86,88,90,92,94,96,98,100,102,104,106,108,110,112,114,116,118,120,122,124,126,-1,-1,-1,-1,-1,-1,-1,-1,-1,-1,-1,-1,-1,-1,-1,-1,-1,-1,-1,-1,-1,-1,-1,-1,-1,-1,-1,-1,-1,-1,-1,-1,-1,-1,-1,-1,-1,-1,-1,-1,-1,-1,-1,-1,-1,-1,-1,-1,-1,-1,-1,-1,-1,-1,-1,-1,-1,-1,-1,-1,-1,-1,-1,-1],"split_conditions":[6.255E2,-9.215E2,3.5315E3,2.705E2,-1.0798E4,-3.825E2,9.535E2,3.935E2,9.1995E3,2.02E2,-1.8095E3,1.07685E4,-6.1375E3,1.157E4,1.83875E4,1.0286E4,9.285E2,1.2095E4,1.0754E4,-7.325E2,-6.43E2,3.088E3,1.0585E3,-1.885E2,5.525E2,1.424E3,4.35E2,8.4295E3,6.525E2,9.659E3,3.92E2,3.727E3,8.845E3,-1.729E3,2.366E3,1.0605E3,7.375E2,6.805E2,5.03E2,4.3E2,8.2155E3,-1.18245E4,-1.455E3,1.32195E4,-1.599E3,4.845E2,-4.0725E3,-2.2726E4,-1.8855E3,-1.1332E4,1.651E3,2.961E3,-2.34075E4,1.108E3,-1.9862E4,-4.2045E3,4.575E2,1.519E3,-1.7275E3,-1.1775E4,-1.459E3,1.3995E3,-1.7713E4,2.1000001E-1,8.0051824E-2,2.1000001E-1,1.193403E-1,1.2764911E-1,4.1165885E-2,2.1000001E-1,5.494434E-2,1.2019561E-1,7.611906E-2,8.974745E-2,2.1000001E-1,2.1000001E-1,8.3863124E-2,2.1000001E-1,1.0083535E-1,2.1000001E-1,-5.5238567E-3,2.1000001E-1,4.8692714E-2,7.44416E-2,2.1000001E-1,2.1000001E-1,7.645838E-2,8.0946E-3,7.689528E-2,1.9051568E-1,4.742079E-2,9.060853E-2,2.1000001E-1,9.713592E-2,2.1000001E-1,2.1000001E-1,8.000774E-2,2.1000001E-1,5.8995005E-2,1.2147883E-1,2.1000001E-1,8.0341E-2,2.1000001E-1,4.488055E-2,1.2538883E-1,2.1665273E-2,-1.7186634E-2,3.9956786E-2,2.1000001E-1,-1.119086E-2,4.263106E-2,8.8431135E-2,2.1000001E-1,2.1000001E-1,9.219673E-2,1.12285525E-1,2.1000001E-1,2.1000001E-1,7.8940384E-2,2.1000001E-1,7.271911E-2,1.1095388E-1,1.765754E-1,2.1000001E-1,8.4616765E-2,2.1000001E-1,9.9925995E-2],"split_indices":[1004,52,52,1131,68,1604,1069,1017,234,1144,1143,118,208,119,57,123,1005,38,122,1584,1443,929,1138,1588,1133,1436,1399,52,461,124,140,1270,243,1065,1,1575,598,729,1094,1017,286,327,1468,304,1416,621,45,97,1130,313,1563,207,273,718,91,69,138,681,1026,213,1475,921,331,0,0,0,0,0,0,0,0,0,0,0,0,0,0,0,0,0,0,0,0,0,0,0,0,0,0,0,0,0,0,0,0,0,0,0,0,0,0,0,0,0,0,0,0,0,0,0,0,0,0,0,0,0,0,0,0,0,0,0,0,0,0,0,0],"split_type":[0,0,0,0,0,0,0,0,0,0,0,0,0,0,0,0,0,0,0,0,0,0,0,0,0,0,0,0,0,0,0,0,0,0,0,0,0,0,0,0,0,0,0,0,0,0,0,0,0,0,0,0,0,0,0,0,0,0,0,0,0,0,0,0,0,0,0,0,0,0,0,0,0,0,0,0,0,0,0,0,0,0,0,0,0,0,0,0,0,0,0,0,0,0,0,0,0,0,0,0,0,0,0,0,0,0,0,0,0,0,0,0,0,0,0,0,0,0,0,0,0,0,0,0,0,0,0],"sum_hessian":[2.1942112E6,3.1732347E5,1.8768878E6,7.9865984E4,2.3745748E5,1.6856579E6,1.9122983E5,1.6008681E4,6.385731E4,1.1238587E4,2.2621889E5,1.6810261E6,4.631751E3,4.6815844E4,1.4441398E5,1.3253422E4,2.7552585E3,5.585594E4,8.0013657E3,2.7307666E3,8.50782E3,2.4811301E3,2.2373777E5,1.3526398E6,3.2838644E5,1.5390426E3,3.0927083E3,1.4409252E4,3.2406594E4,1.3992614E5,4.4878486E3,2.5870159E3,1.0666406E4,2.7089036E3,4.6354958E1,4.9705277E4,6.1506626E3,4.2819453E3,3.7194202E3,1.7650145E3,9.657521E2,7.9141816E3,5.936385E2,1.6137191E3,8.6741113E2,2.1957969E5,4.15807E3,9.953337E4,1.2531064E6,9.908521E3,3.184779E5,1.025587E3,5.1345557E2,3.0241052E3,6.860306E1,1.0626891E4,3.7823606E3,2.976674E4,2.6398542E3,4.4381812E4,9.554433E4,2.5513257E3,1.9365231E3,2.0992065E2,2.3770952E3,8.294274E3,2.3721318E3,2.2728395E2,2.4816196E3,3.4855072E1,1.1499885E1,7.981834E3,4.1723445E4,3.314763E3,2.8358997E3,4.659298E2,3.8160156E3,3.1121643E3,6.0725586E2,1.6478635E3,1.1715107E2,2.5028128E1,9.40724E2,7.7703315E3,1.4385045E2,4.0633957E2,1.8729893E2,9.778553E2,6.358638E2,7.0726263E2,1.6014848E2,1.4746779E3,2.1810502E5,3.6430757E3,5.149941E2,8.750081E2,9.865836E4,7.526534E2,1.2523536E6,5.132024E3,4.7764976E3,3.1507628E5,3.4016096E3,9.484101E2,7.7176956E1,1.4227739E2,3.711782E2,3.472165E1,2.9893835E3,2.1854317E1,4.674874E1,9.736083E3,8.908078E2,2.7204321E3,1.0619287E3,2.410951E3,2.735579E4,4.920405E2,2.1478137E3,2.3494115E2,4.414687E4,8.6897375E4,8.646951E3,2.1766758E3,3.7465002E2,2.8808014E2,1.648443E3],"tree_param":{"num_deleted":"0","num_feature":"1820","num_nodes":"127","size_leaf_vector":"0"}},{"base_weights":[2.5527772E-1,6.698049E-1,2.0003341E-1,3.956919E-1,7E-1,1.823801E-1,4.2265275E-1,7E-1,3.5644856E-1,7E-1,3.9916098E-1,2.5772747E-1,1.6527957E-1,5.710934E-1,3.0879712E-1,2.5165814E-1,7E-1,2.667752E-1,4.6065772E-1,5.175329E-1,7E-1,2.9372403E-1,7E-1,7E-1,2.4169433E-1,1.6379817E-1,6.803632E-1,4.3844268E-1,6.7136294E-1,2.9699957E-1,7E-1,7E-1,1.17079094E-1,1.04197375E-1,7E-1,2.510002E-1,7E-1,4.1457543E-1,7E-1,3.679314E-1,7E-1,7E-1,3.590151E-1,4.3973976E-1,2.0484374E-1,2.1944809E-1,7E-1,7E-1,3.4076455E-1,7E-1,2.3528054E-1,1.5371041E-1,1.9659488E-1,7E-1,1.548163E-1,3.2798374E-1,6.448551E-1,7E-1,4.4264868E-1,2.5774446E-1,4.0086785E-1,7E-1,2.1559463E-1,7.261841E-2,7E-1,5.930566E-2,4.837448E-1,7E-1,-5.439447E-2,7E-1,8.432263E-2,1.9223475E-1,3.427161E-1,5.7989243E-2,7E-1,3.8046673E-1,7E-1,2.989979E-1,7E-1,6.201703E-1,2.439001E-1,1.4492007E-1,7E-1,7E-1,6.2379404E-3,1.690466E-1,7E-1,3.138816E-1,7E-1,3.6964324E-1,1.04754366E-1,7E-1,1.3468698E-1,7E-1,2.588692E-1,2.9298282E-1,7E-1,7E-1,2.183982E-1,7E-1,3.906012E-1,2.2457653E-1,4.279928E-1,1.9212455E-1,1.4981377E-1,1.8523368E-1,2.891808E-1,2.7486297E-1,7E-1,6.8793523E-1,1.0584772E-1,3.0648342E-1,7E-1,7E-1,3.220815E-1,4.3888223E-1,7E-1,3.329155E-1,7E-1,2.4846396E-1,6.6663885E-1,3.6564964E-1,6.5433985E-1,7E-1,6.320512E-2,1.1589511E-1,5.652816E-1],"categories":[],"categories_nodes":[],"categories_segments":[],"categories_sizes":[],"default_left":[true,true,true,true,true,true,true,true,true,true,true,true,true,true,true,true,true,true,true,true,true,true,true,true,true,true,true,true,true,true,true,true,true,true,true,true,true,true,true,true,true,true,true,true,true,true,true,true,true,true,true,true,true,true,true,true,true,true,true,true,true,true,true,false,false,false,false,false,false,false,false,false,false,false,false,false,false,false,false,false,false,false,false,false,false,false,false,false,false,false,false,false,false,false,false,false,false,false,false,false,false,false,false,false,false,false,false,false,false,false,false,false,false,false,false,false,false,false,false,false,false,false,false,false,false,false,false],"id":13,"left_children":[1,3,5,7,9,11,13,15,17,19,21,23,25,27,29,31,33,35,37,39,41,43,45,47,49,51,53,55,57,59,61,63,65,67,69,71,73,75,77,79,81,83,85,87,89,91,93,95,97,99,101,103,105,107,109,111,113,115,117,119,121,123,125,-1,-1,-1,-1,-1,-1,-1,-1,-1,-1,-1,-1,-1,-1,-1,-1,-1,-1,-1,-1,-1,-1,-1,-1,-1,-1,-1,-1,-1,-1,-1,-1,-1,-1,-1,-1,-1,-1,-1,-1,-1,-1,-1,-1,-1,-1,-1,-1,-1,-1,-1,-1,-1,-1,-1,-1,-1,-1,-1,-1,-1,-1,-1,-1],"loss_changes":[5.4859812E4,8.086164E3,8.307445E3,1.2173193E3,9.275781E2,2.523539E3,2.6246934E3,3.3168604E2,7.568887E2,5.7484375E2,3.858578E2,2.6699297E3,1.2179297E3,8.9638086E2,6.0101465E2,1.3494638E2,1.3983887E2,4.0970386E2,4.9179883E2,5.7872363E2,3.6810156E2,1.03257385E2,1.11259766E2,4.0337305E2,1.3288965E3,5.2658984E2,4.711399E2,6.615459E2,6.76875E2,3.52708E2,9.3904785E1,5.3854523E0,2.912312E1,4.9013775E1,1.3686475E2,2.2938745E2,6.677014E1,3.3308447E2,1.1966919E2,3.2740857E2,2.2885059E2,3.3214062E2,2.765608E2,1.3274658E2,8.164339E1,2.2673048E1,4.754956E1,2.3943262E2,1.7486029E2,4.2831543E1,7.1497656E2,1.8217773E2,3.9379004E2,1.050564E2,4.150671E1,1.6390002E2,2.6767725E2,3.2505273E2,3.1384277E2,2.3814258E2,2.1160376E2,3.1018677E1,1.3959471E1,0E0,0E0,0E0,0E0,0E0,0E0,0E0,0E0,0E0,0E0,0E0,0E0,0E0,0E0,0E0,0E0,0E0,0E0,0E0,0E0,0E0,0E0,0E0,0E0,0E0,0E0,0E0,0E0,0E0,0E0,0E0,0E0,0E0,0E0,0E0,0E0,0E0,0E0,0E0,0E0,0E0,0E0,0E0,0E0,0E0,0E0,0E0,0E0,0E0,0E0,0E0,0E0,0E0,0E0,0E0,0E0,0E0,0E0,0E0,0E0,0E0,0E0,0E0,0E0],"parents":[2147483647,0,0,1,1,2,2,3,3,4,4,5,5,6,6,7,7,8,8,9,9,10,10,11,11,12,12,13,13,14,14,15,15,16,16,17,17,18,18,19,19,20,20,21,21,22,22,23,23,24,24,25,25,26,26,27,27,28,28,29,29,30,30,31,31,32,32,33,33,34,34,35,35,36,36,37,37,38,38,39,39,40,40,41,41,42,42,43,43,44,44,45,45,46,46,47,47,48,48,49,49,50,50,51,51,52,52,53,53,54,54,55,55,56,56,57,57,58,58,59,59,60,60,61,61,62,62],"right_children":[2,4,6,8,10,12,14,16,18,20,22,24,26,28,30,32,34,36,38,40,42,44,46,48,50,52,54,56,58,60,62,64,66,68,70,72,74,76,78,80,82,84,86,88,90,92,94,96,98,100,102,104,106,108,110,112,114,116,118,120,122,124,126,-1,-1,-1,-1,-1,-1,-1,-1,-1,-1,-1,-1,-1,-1,-1,-1,-1,-1,-1,-1,-1,-1,-1,-1,-1,-1,-1,-1,-1,-1,-1,-1,-1,-1,-1,-1,-1,-1,-1,-1,-1,-1,-1,-1,-1,-1,-1,-1,-1,-1,-1,-1,-1,-1,-1,-1,-1,-1,-1,-1,-1,-1,-1,-1],"split_conditions":[5.485E2,9.785E2,-4.0055E3,9.05E1,7.745E2,4.275E2,9.575E2,-8.465E3,5.25E1,-9.4655E3,-7.365E2,3.755E2,1.27365E4,9.205E2,2.416E3,5.37E2,2.695E2,3.234E3,1.41595E4,6.255E2,4.2605E3,-2.022E4,8.615E2,2.2805E3,-2.43E2,6.115E2,3.315E2,-1.2404E4,1.7525E3,-8.2225E3,1.62E2,5.225E2,5.615E2,-1.72E2,1.867E3,3.815E2,9.75E1,-2.7E2,2.42E2,1.88E3,3.49E2,2.891E3,4.75E1,8.675E2,1.113E3,7.3E1,5.485E2,2.7195E3,8.84E2,3.397E3,-3.1565E3,5.715E2,1.6367E4,1.07E2,2.3E1,2.818E3,5.285E2,9.3555E3,1.8065E3,1.7565E3,1.2415E3,8.246E3,3.0655E3,2.1785524E-2,2.1000001E-1,1.77917E-2,1.4512345E-1,2.1000001E-1,-1.6318342E-2,2.1000001E-1,2.529679E-2,5.767043E-2,1.0281483E-1,1.7396774E-2,2.1000001E-1,1.14140026E-1,2.1000001E-1,8.969937E-2,2.1000001E-1,1.860511E-1,7.3170036E-2,4.3476023E-2,2.1000001E-1,2.1000001E-1,1.8713822E-3,5.0713982E-2,2.1000001E-1,9.416448E-2,2.1000001E-1,1.10892974E-1,3.142631E-2,2.1000001E-1,4.0406093E-2,2.1000001E-1,7.766076E-2,8.789485E-2,2.1000001E-1,2.1000001E-1,6.551946E-2,2.1000001E-1,1.1718036E-1,6.737296E-2,1.2839784E-1,5.7637367E-2,4.4944134E-2,5.5570107E-2,8.675424E-2,8.24589E-2,2.1000001E-1,2.0638058E-1,3.1754315E-2,9.194503E-2,2.1000001E-1,2.1000001E-1,9.662446E-2,1.3166468E-1,2.1000001E-1,9.987466E-2,2.1000001E-1,7.453919E-2,1.9999166E-1,1.096949E-1,1.9630197E-1,2.1000001E-1,1.8961538E-2,3.4768533E-2,1.695845E-1],"split_indices":[1004,52,65,1079,1005,1456,1069,251,32,65,1077,1146,54,957,868,1339,661,1382,119,725,246,94,780,851,759,1289,1492,144,943,130,527,11,1140,642,1348,684,1076,1519,1075,591,1153,139,998,1465,87,766,1132,744,1421,572,131,1562,104,1154,356,233,1206,38,1356,920,1323,1358,50,0,0,0,0,0,0,0,0,0,0,0,0,0,0,0,0,0,0,0,0,0,0,0,0,0,0,0,0,0,0,0,0,0,0,0,0,0,0,0,0,0,0,0,0,0,0,0,0,0,0,0,0,0,0,0,0,0,0,0,0,0,0,0,0],"split_type":[0,0,0,0,0,0,0,0,0,0,0,0,0,0,0,0,0,0,0,0,0,0,0,0,0,0,0,0,0,0,0,0,0,0,0,0,0,0,0,0,0,0,0,0,0,0,0,0,0,0,0,0,0,0,0,0,0,0,0,0,0,0,0,0,0,0,0,0,0,0,0,0,0,0,0,0,0,0,0,0,0,0,0,0,0,0,0,0,0,0,0,0,0,0,0,0,0,0,0,0,0,0,0,0,0,0,0,0,0,0,0,0,0,0,0,0,0,0,0,0,0,0,0,0,0,0,0],"sum_hessian":[2.3956022E6,2.8171734E5,2.113885E6,9.009824E4,1.916191E5,1.9585752E6,1.5530969E5,9.090149E3,8.100809E4,1.8136553E5,1.0253574E4,3.6228438E5,1.5962909E6,6.7413945E4,8.789575E4,1.6515325E3,7.4386167E3,4.354264E4,3.746545E4,1.7278541E4,1.6408698E5,7.9623335E3,2.291241E3,1.2191073E4,3.500933E5,1.5917144E6,4.5765127E3,2.9023262E4,3.8390684E4,8.652849E4,1.3672567E3,2.763787E2,1.3751538E3,3.9431198E2,7.0443047E3,4.2571383E4,9.712596E2,3.2386807E4,5.078643E3,1.0469008E4,6.809533E3,1.609177E5,3.1692844E3,3.011305E3,4.9510283E3,4.8291122E2,1.8083297E3,9.062562E3,3.1285122E3,3.4413042E3,3.46652E5,1.2172982E6,3.7441606E5,2.9847986E3,1.5917142E3,1.8907662E4,1.0115601E4,2.7688814E4,1.0701867E4,6.2798453E4,2.3730041E4,9.659755E2,4.012812E2,1.3927142E1,2.6245154E2,1.1889755E3,1.8617838E2,6.1753304E1,3.325587E2,6.682947E3,3.613579E2,2.5948443E4,1.6622941E4,1.62182E2,8.090776E2,2.9108443E4,3.278362E3,7.462463E2,4.332397E3,3.4496177E3,7.0193906E3,7.4333765E2,6.0661953E3,1.6022761E5,6.9009094E2,2.2892998E3,8.7998456E2,2.261272E3,7.5003296E2,1.8697495E3,3.081279E3,6.1753304E1,4.2115793E2,1.5624629E3,2.4586674E2,1.4472557E3,7.6153057E3,6.322566E2,2.4962556E3,2.989754E3,4.5155038E2,3.2841278E5,1.8239209E4,1.1210353E5,1.1051948E6,3.3349588E5,4.0920207E4,5.8296216E2,2.4018364E3,1.3280653E2,1.4589077E3,1.7959477E4,9.4818506E2,8.023568E3,2.092033E3,4.7736143E3,2.29152E4,7.5921167E3,3.1097507E3,6.1406344E4,1.3921078E3,2.0837283E4,2.892756E3,8.892739E2,7.670155E1,3.132902E2,8.799098E1],"tree_param":{"num_deleted":"0","num_feature":"1820","num_nodes":"127","size_leaf_vector":"0"}},{"base_weights":[2.0235454E-1,4.7575682E-1,1.5519996E-1,3.7356424E-1,6.59877E-1,1.4067274E-1,2.9323435E-1,2.978024E-1,4.992126E-1,5.0455E-1,7E-1,1.2997106E-1,1.9823271E-1,4.768259E-1,2.3604394E-1,4.857858E-1,2.589607E-1,4.432743E-1,6.773537E-1,3.9349952E-1,5.8983463E-1,7E-1,4.431837E-1,1.5713683E-1,1.2322876E-1,5.43368E-1,1.8877114E-1,6.4702064E-1,4.0440914E-1,2.1692114E-1,3.8141128E-1,4.183454E-1,7E-1,5.285824E-1,2.3400082E-1,4.0976924E-1,7E-1,2.590026E-1,7E-1,5.588691E-1,2.7521104E-1,6.056422E-1,4.319428E-2,9.0998195E-2,7E-1,2.729375E-1,7E-1,1.5152277E-1,2.7206156E-1,1.198606E-1,1.6186069E-1,4.327388E-1,7E-1,6.5073967E-1,1.8477342E-1,4.6238512E-1,7E-1,3.309125E-1,5.839607E-1,1.9410889E-1,3.3838025E-1,5.2783793E-1,2.3027535E-1,2.3801243E-1,5.2760285E-1,-8.783331E-2,7E-1,3.0224064E-1,6.628391E-1,1.4141288E-1,2.7645323E-1,5.4723734E-1,3.5697615E-1,7E-1,3.0893686E-1,8.132118E-2,5.5850285E-1,7E-1,3.6548412E-1,7E-1,4.4293165E-1,7E-1,2.5363111E-1,7E-1,5.2046233E-1,-7.201492E-2,7E-1,4.2601356E-1,1.44255E-2,-5.1605646E-2,7E-1,1.4349689E-1,4.817264E-1,7E-1,1.7397973E-1,4.561128E-1,1.4980854E-1,2.5254795E-1,7E-1,7E-1,1.1971514E-1,7E-1,1.5765569E-1,5.7933325E-1,3.1336868E-1,7E-1,2.1623923E-1,1.9305804E-1,7E-1,6.719776E-1,1.8165772E-1,7E-1,3.743719E-1,1.2055133E-1,7E-1,3.0442742E-1,7E-1,3.9606184E-1,6.932926E-1,7E-1,1.9210136E-1,2.684984E-1,6.734566E-1,3.7093538E-1,6.799733E-1,3.7719947E-1,1.5047206E-1],"categories":[],"categories_nodes":[],"categories_segments":[],"categories_sizes":[],"default_left":[true,true,true,true,true,true,true,true,true,true,true,true,true,true,true,true,true,true,true,true,true,true,true,true,true,true,true,true,true,true,true,true,true,true,true,true,true,true,true,true,true,true,true,true,true,true,true,true,true,true,true,true,true,true,true,true,true,true,true,true,true,true,true,false,false,false,false,false,false,false,false,false,false,false,false,false,false,false,false,false,false,false,false,false,false,false,false,false,false,false,false,false,false,false,false,false,false,false,false,false,false,false,false,false,false,false,false,false,false,false,false,false,false,false,false,false,false,false,false,false,false,false,false,false,false,false,false],"id":14,"left_children":[1,3,5,7,9,11,13,15,17,19,21,23,25,27,29,31,33,35,37,39,41,43,45,47,49,51,53,55,57,59,61,63,65,67,69,71,73,75,77,79,81,83,85,87,89,91,93,95,97,99,101,103,105,107,109,111,113,115,117,119,121,123,125,-1,-1,-1,-1,-1,-1,-1,-1,-1,-1,-1,-1,-1,-1,-1,-1,-1,-1,-1,-1,-1,-1,-1,-1,-1,-1,-1,-1,-1,-1,-1,-1,-1,-1,-1,-1,-1,-1,-1,-1,-1,-1,-1,-1,-1,-1,-1,-1,-1,-1,-1,-1,-1,-1,-1,-1,-1,-1,-1,-1,-1,-1,-1,-1],"loss_changes":[3.3223E4,7.1324453E3,4.4073438E3,2.3204727E3,1.9094766E3,1.2249414E3,2.1973555E3,1.1103184E3,9.1346094E2,5.2730176E2,3.57125E2,3.0711523E2,1.0179717E3,6.1240234E2,4.435254E2,6.8424756E2,8.481045E2,8.487041E2,3.0987598E2,4.7319604E2,2.7219043E2,3.053203E2,2.6392383E2,2.1508301E2,1.7478711E2,2.166709E2,5.60291E2,3.3906445E2,4.6002295E2,3.906958E2,4.104131E2,4.6673535E2,7.618848E1,3.243042E2,4.5340918E2,4.692539E2,1.12946045E2,8.795593E1,2.3945605E2,2.4226855E2,1.3952917E2,2.8086426E2,6.840705E1,2.1146263E1,3.035547E2,9.210362E1,9.833411E1,1.6591846E2,1.7228821E2,1.374668E2,2.5836108E2,1.03015015E2,2.59375E1,1.867799E2,4.565537E2,2.1321509E2,1.23825195E2,2.5190845E2,2.0778296E2,1.8922754E2,5.219558E2,2.246399E2,1.0699686E2,0E0,0E0,0E0,0E0,0E0,0E0,0E0,0E0,0E0,0E0,0E0,0E0,0E0,0E0,0E0,0E0,0E0,0E0,0E0,0E0,0E0,0E0,0E0,0E0,0E0,0E0,0E0,0E0,0E0,0E0,0E0,0E0,0E0,0E0,0E0,0E0,0E0,0E0,0E0,0E0,0E0,0E0,0E0,0E0,0E0,0E0,0E0,0E0,0E0,0E0,0E0,0E0,0E0,0E0,0E0,0E0,0E0,0E0,0E0,0E0,0E0,0E0,0E0,0E0],"parents":[2147483647,0,0,1,1,2,2,3,3,4,4,5,5,6,6,7,7,8,8,9,9,10,10,11,11,12,12,13,13,14,14,15,15,16,16,17,17,18,18,19,19,20,20,21,21,22,22,23,23,24,24,25,25,26,26,27,27,28,28,29,29,30,30,31,31,32,32,33,33,34,34,35,35,36,36,37,37,38,38,39,39,40,40,41,41,42,42,43,43,44,44,45,45,46,46,47,47,48,48,49,49,50,50,51,51,52,52,53,53,54,54,55,55,56,56,57,57,58,58,59,59,60,60,61,61,62,62],"right_children":[2,4,6,8,10,12,14,16,18,20,22,24,26,28,30,32,34,36,38,40,42,44,46,48,50,52,54,56,58,60,62,64,66,68,70,72,74,76,78,80,82,84,86,88,90,92,94,96,98,100,102,104,106,108,110,112,114,116,118,120,122,124,126,-1,-1,-1,-1,-1,-1,-1,-1,-1,-1,-1,-1,-1,-1,-1,-1,-1,-1,-1,-1,-1,-1,-1,-1,-1,-1,-1,-1,-1,-1,-1,-1,-1,-1,-1,-1,-1,-1,-1,-1,-1,-1,-1,-1,-1,-1,-1,-1,-1,-1,-1,-1,-1,-1,-1,-1,-1,-1,-1,-1,-1,-1,-1,-1],"split_conditions":[5.795E2,-2.8685E3,-7.975E2,3.0735E3,-4.095E2,-1.955E2,8.245E2,1.4625E3,-5.325E2,-4.119E3,7.945E2,2.605E2,5.65E1,1.231E3,-1.1562E4,2.258E3,8.55E1,-2.2965E3,3.45E1,-1.41045E4,1.5265E3,-1.831E3,2.1965E3,1.6319E4,-3.7255E3,1.168E3,-2.3665E4,1.3915E3,1.5351E4,1.14745E4,2.8625E3,-2.52E2,1.006E3,9.895E2,-3.101E3,5.355E2,3.4945E3,5.025E2,5.66E2,3.82E2,5.88E2,1.4325E3,6.18E2,2.45E2,-1.166E3,-1.6335E3,-1.395E2,-1.7525E3,1.5995E3,2.78E2,-2E0,-1.8185E3,1.2535E3,-3.635E2,1.027E3,1.1955E3,4.455E2,-3.975E2,-2.939E3,8.08E2,1.6195E3,2.0965E3,9.065E2,7.1403734E-2,1.5828086E-1,-2.6349993E-2,2.1000001E-1,9.0672195E-2,1.9885175E-1,4.2423867E-2,8.2935974E-2,1.641712E-1,1.0709285E-1,2.1000001E-1,9.2681065E-2,2.4396354E-2,1.6755086E-1,2.1000001E-1,1.0964524E-1,2.1000001E-1,1.328795E-1,2.1000001E-1,7.608934E-2,2.1000001E-1,1.561387E-1,-2.1604476E-2,2.1000001E-1,1.2780407E-1,4.32765E-3,-1.5481695E-2,2.1000001E-1,4.3049067E-2,1.4451793E-1,2.1000001E-1,5.219392E-2,1.3683385E-1,4.4942565E-2,7.576439E-2,2.1000001E-1,2.1000001E-1,3.5914544E-2,2.1000001E-1,4.7296707E-2,1.7379998E-1,9.401061E-2,2.1000001E-1,6.487177E-2,5.7917416E-2,2.1000001E-1,2.0159328E-1,5.4497316E-2,2.1000001E-1,1.1231157E-1,3.61654E-2,2.1000001E-1,9.1328226E-2,2.1000001E-1,1.1881856E-1,2.079878E-1,2.1000001E-1,5.763041E-2,8.054952E-2,2.0203699E-1,1.1128062E-1,2.03992E-1,1.1315984E-1,4.514162E-2],"split_indices":[1133,65,26,54,982,846,1069,321,1604,136,1134,1557,759,139,150,1387,1079,130,1022,144,960,103,959,122,26,826,96,1276,120,53,1579,641,718,780,53,1005,259,597,788,1082,729,1161,1008,1003,740,1078,773,1611,1478,575,1167,1445,947,214,49,229,1146,1441,136,690,963,831,967,0,0,0,0,0,0,0,0,0,0,0,0,0,0,0,0,0,0,0,0,0,0,0,0,0,0,0,0,0,0,0,0,0,0,0,0,0,0,0,0,0,0,0,0,0,0,0,0,0,0,0,0,0,0,0,0,0,0,0,0,0,0,0,0],"split_type":[0,0,0,0,0,0,0,0,0,0,0,0,0,0,0,0,0,0,0,0,0,0,0,0,0,0,0,0,0,0,0,0,0,0,0,0,0,0,0,0,0,0,0,0,0,0,0,0,0,0,0,0,0,0,0,0,0,0,0,0,0,0,0,0,0,0,0,0,0,0,0,0,0,0,0,0,0,0,0,0,0,0,0,0,0,0,0,0,0,0,0,0,0,0,0,0,0,0,0,0,0,0,0,0,0,0,0,0,0,0,0,0,0,0,0,0,0,0,0,0,0,0,0,0,0,0,0],"sum_hessian":[2.5769955E6,3.790801E5,2.1979155E6,2.4377836E5,1.3530172E5,1.9886275E6,2.0928792E5,1.5208153E5,9.169682E4,5.569926E4,7.960246E4,1.6768641E6,3.1176338E5,4.9708207E4,1.5957972E5,2.6040582E4,1.2604096E5,6.9786555E4,2.1910271E4,2.4197252E4,3.150201E4,7.418139E4,5.4210737E3,3.334243E5,1.3434398E6,8.317159E3,3.0344622E5,1.4834964E4,3.4873242E4,1.4102995E5,1.8549752E4,2.3694234E4,2.3463467E3,1.0677738E4,1.1536322E5,6.4685055E4,5.101497E3,1.6526748E3,2.0257598E4,1.0088964E4,1.4108288E4,3.0616543E4,8.854667E2,8.235579E2,7.335783E4,3.4095508E3,2.0115228E3,3.1789738E5,1.5526933E4,1.2357076E6,1.077322E5,5.896293E3,2.420866E3,2.6020085E3,3.008442E5,6.7505083E3,8.084456E3,2.4746494E4,1.0126747E4,1.1873244E5,2.2297521E4,9.4203955E3,9.129356E3,8.940624E3,1.475361E4,1.2253845E2,2.223808E3,3.9767085E3,6.7010293E3,3.6267906E4,7.909531E4,1.7946012E4,4.6739043E4,4.3607466E3,7.407507E2,1.0380896E3,6.1458514E2,1.8114342E4,2.143255E3,3.3753467E3,6.713617E3,6.285155E2,1.3479772E4,1.343202E4,1.7184523E4,7.562281E2,1.2923862E2,1.523674E2,6.711905E2,5.3721924E2,7.282061E4,2.1057554E3,1.3037954E3,1.6553665E3,3.561564E2,1.7776292E3,3.1611975E5,1.5065073E4,4.6185898E2,2.09732E2,1.2354979E6,7.840853E2,1.0694812E5,2.6446433E3,3.2516497E3,2.3089397E3,1.1192623E2,7.5228296E2,1.8497256E3,1.9103192E3,2.9893388E5,1.1410182E3,5.60949E3,3.6925284E2,7.715203E3,2.3156557E4,1.5899382E3,3.726673E3,6.400074E3,2.0131009E2,1.18531125E5,1.8451227E4,3.8462954E3,4.6392314E3,4.7811646E3,3.21203E3,5.9173267E3],"tree_param":{"num_deleted":"0","num_feature":"1820","num_nodes":"127","size_leaf_vector":"0"}},{"base_weights":[1.6157648E-1,3.4250233E-1,1.2314827E-1,2.669238E-1,4.6121553E-1,1.16184495E-1,2.6006383E-1,1.9610544E-1,3.7888828E-1,5.4955107E-1,3.6127818E-1,1.7425087E-1,1.08249426E-1,3.4076864E-1,1.8462875E-1,6.158101E-1,1.89801E-1,7E-1,3.644035E-1,4.96061E-1,7E-1,3.24099E-1,5.543736E-1,4.8414624E-1,1.6562198E-1,1.0477348E-1,1.7499785E-1,2.5562185E-1,4.0654844E-1,1.7016222E-1,4.4761947E-1,3.075848E-1,7E-1,5.1720595E-1,1.8199031E-1,3.3323187E-1,7E-1,3.5330203E-1,7E-1,1.3503067E-1,5.159002E-1,3.9685312E-1,7E-1,3.078474E-1,7E-1,7E-1,4.192832E-1,2.2810806E-1,5.625363E-1,3.4160778E-1,1.5554346E-1,1.144025E-1,9.282006E-2,4.436628E-1,1.6434884E-1,7E-1,2.3866253E-1,2.8227758E-1,4.7314614E-1,6.008576E-1,1.6362038E-1,7E-1,2.491738E-1,1.2836292E-1,5.4610044E-1,7E-1,1.5146542E-1,2.563517E-1,7E-1,2.694261E-1,1.5758061E-1,1.2413917E-1,6.918878E-1,-1.3551685E-1,7E-1,4.1534033E-1,2.7862096E-1,2.602514E-1,7E-1,7.580279E-2,4.6602085E-1,4.860644E-1,6.95458E-1,5.938283E-1,1.9590306E-1,7E-1,-4.526242E-2,6.116188E-1,2.8969958E-1,7E-1,2.0131992E-1,7E-1,2.0827253E-1,3.8023967E-1,7E-1,3.8802502E-1,1.7707965E-1,4.322666E-1,6.9011587E-1,5.2958655E-1,2.1612522E-1,1.4616331E-1,2.6332915E-1,5.285206E-1,1.1394118E-1,9.416734E-2,2.3583675E-2,3.2404914E-1,7E-1,1.4428838E-1,2.7098748E-1,-8.952713E-2,7E-1,6.147482E-1,2.1730177E-1,6.892002E-1,2.5253907E-1,3.9830947E-1,6.265889E-1,-4.2773895E-2,7E-1,2.3470107E-1,1.3238543E-1,7E-1,-2.5935503E-2,5.2325624E-1,1.3602379E-1],"categories":[],"categories_nodes":[],"categories_segments":[],"categories_sizes":[],"default_left":[true,true,true,true,true,true,true,true,true,true,true,true,true,true,true,true,true,true,true,true,true,true,true,true,true,true,true,true,true,true,true,true,true,true,true,true,true,true,true,true,true,true,true,true,true,true,true,true,true,true,true,true,true,true,true,true,true,true,true,true,true,true,true,false,false,false,false,false,false,false,false,false,false,false,false,false,false,false,false,false,false,false,false,false,false,false,false,false,false,false,false,false,false,false,false,false,false,false,false,false,false,false,false,false,false,false,false,false,false,false,false,false,false,false,false,false,false,false,false,false,false,false,false,false,false,false,false],"id":15,"left_children":[1,3,5,7,9,11,13,15,17,19,21,23,25,27,29,31,33,35,37,39,41,43,45,47,49,51,53,55,57,59,61,63,65,67,69,71,73,75,77,79,81,83,85,87,89,91,93,95,97,99,101,103,105,107,109,111,113,115,117,119,121,123,125,-1,-1,-1,-1,-1,-1,-1,-1,-1,-1,-1,-1,-1,-1,-1,-1,-1,-1,-1,-1,-1,-1,-1,-1,-1,-1,-1,-1,-1,-1,-1,-1,-1,-1,-1,-1,-1,-1,-1,-1,-1,-1,-1,-1,-1,-1,-1,-1,-1,-1,-1,-1,-1,-1,-1,-1,-1,-1,-1,-1,-1,-1,-1,-1],"loss_changes":[1.9027016E4,4.3013906E3,2.152125E3,2.3226582E3,1.6461797E3,9.8968555E2,6.650454E2,4.7468506E2,5.989121E2,1.002209E3,6.2802246E2,6.904707E2,4.3842773E2,2.955127E2,2.1476965E2,1.23828186E2,4.5199756E2,1.441897E2,4.7651074E2,5.5848047E2,2.712119E2,5.763877E2,2.871958E2,1.4027307E2,4.4557764E2,2.0673047E2,2.675359E2,2.2094495E2,2.4628662E2,1.5071802E2,1.7542792E2,3.9664536E1,8.562378E0,3.359519E2,3.684839E2,8.057093E1,4.1071045E1,4.9245898E2,2.06344E2,7.96226E1,3.9566602E2,1.169104E2,1.3056934E2,3.9218945E2,1.1869983E2,1.1151221E2,1.2466919E2,1.3325455E1,8.8698975E1,3.208822E2,2.4022656E2,1.8999414E2,7.475244E1,1.8520825E2,1.9243091E2,4.0085938E1,1.7970642E2,1.2557556E2,2.2234277E2,1.6001654E2,1.17036255E2,1.3502319E1,5.5382362E1,0E0,0E0,0E0,0E0,0E0,0E0,0E0,0E0,0E0,0E0,0E0,0E0,0E0,0E0,0E0,0E0,0E0,0E0,0E0,0E0,0E0,0E0,0E0,0E0,0E0,0E0,0E0,0E0,0E0,0E0,0E0,0E0,0E0,0E0,0E0,0E0,0E0,0E0,0E0,0E0,0E0,0E0,0E0,0E0,0E0,0E0,0E0,0E0,0E0,0E0,0E0,0E0,0E0,0E0,0E0,0E0,0E0,0E0,0E0,0E0,0E0,0E0,0E0,0E0],"parents":[2147483647,0,0,1,1,2,2,3,3,4,4,5,5,6,6,7,7,8,8,9,9,10,10,11,11,12,12,13,13,14,14,15,15,16,16,17,17,18,18,19,19,20,20,21,21,22,22,23,23,24,24,25,25,26,26,27,27,28,28,29,29,30,30,31,31,32,32,33,33,34,34,35,35,36,36,37,37,38,38,39,39,40,40,41,41,42,42,43,43,44,44,45,45,46,46,47,47,48,48,49,49,50,50,51,51,52,52,53,53,54,54,55,55,56,56,57,57,58,58,59,59,60,60,61,61,62,62],"right_children":[2,4,6,8,10,12,14,16,18,20,22,24,26,28,30,32,34,36,38,40,42,44,46,48,50,52,54,56,58,60,62,64,66,68,70,72,74,76,78,80,82,84,86,88,90,92,94,96,98,100,102,104,106,108,110,112,114,116,118,120,122,124,126,-1,-1,-1,-1,-1,-1,-1,-1,-1,-1,-1,-1,-1,-1,-1,-1,-1,-1,-1,-1,-1,-1,-1,-1,-1,-1,-1,-1,-1,-1,-1,-1,-1,-1,-1,-1,-1,-1,-1,-1,-1,-1,-1,-1,-1,-1,-1,-1,-1,-1,-1,-1,-1,-1,-1,-1,-1,-1,-1,-1,-1,-1,-1,-1],"split_conditions":[5.955E2,1.42525E4,7.2035E3,-8.795E2,1.4265E3,1.2295E3,1.0495E3,-1.9155E3,8.45E2,5.864E3,5.715E2,-1.43945E4,-4.9635E3,3.6465E3,1.45785E4,3.03E3,1.498E3,1.1405E3,2.28345E4,-2.2799E4,-4.385E3,2.32E3,-8.895E2,-1.1815E3,1.8345E3,3.635E2,1.0475E3,-2.355E2,8.45E2,1.07E2,-1.7095E3,-6.425E2,1.3585E3,2.765E2,4.395E2,8.745E2,1.675E2,-4.625E2,-1.085E3,1.2945E3,7.145E2,1.233E3,-1.22E2,1.6105E3,3.625E2,-1.4035E3,9.313E3,-1.618E3,1.6905E3,1.755E2,-6.385E2,-1.53E2,-4.025E2,1.8895E3,-1.1168E4,8.005E2,1.164E3,-4.0975E3,1.6829E4,9.68E2,6.365E2,1.40025E4,-1.4023E4,3.8508877E-2,1.6383013E-1,2.1000001E-1,4.5439627E-2,7.690552E-2,2.1000001E-1,8.082783E-2,4.7274187E-2,3.7241753E-2,2.0756635E-1,-4.0655058E-2,2.1000001E-1,1.246021E-1,8.358629E-2,7.8075424E-2,2.1000001E-1,2.2740837E-2,1.3980626E-1,1.4581932E-1,2.086374E-1,1.7814851E-1,5.877092E-2,2.1000001E-1,-1.3578726E-2,1.8348566E-1,8.6909875E-2,2.1000001E-1,6.039598E-2,2.1000001E-1,6.248176E-2,1.14071906E-1,2.1000001E-1,1.16407506E-1,5.3123895E-2,1.2967998E-1,2.0703477E-1,1.5887597E-1,6.483757E-2,4.3848995E-2,7.8998744E-2,1.5855618E-1,3.4182355E-2,2.8250203E-2,7.0751025E-3,9.721475E-2,2.1000001E-1,4.3286514E-2,8.129625E-2,-2.685814E-2,2.1000001E-1,1.8442446E-1,6.519053E-2,2.0676008E-1,7.576172E-2,1.19492844E-1,1.8797667E-1,-1.2832169E-2,2.1000001E-1,7.0410326E-2,3.9715633E-2,2.1000001E-1,-7.780651E-3,1.5697688E-1,4.080714E-2],"split_indices":[1133,124,52,28,1161,1462,1069,1188,735,29,1153,83,65,76,243,825,231,668,58,94,132,868,1043,214,1577,1557,36,636,957,1534,1065,1545,560,755,1419,1637,1094,1457,1041,816,778,269,1519,750,521,1520,1208,1468,220,1413,1604,1076,141,947,149,1243,229,102,116,648,636,61,262,0,0,0,0,0,0,0,0,0,0,0,0,0,0,0,0,0,0,0,0,0,0,0,0,0,0,0,0,0,0,0,0,0,0,0,0,0,0,0,0,0,0,0,0,0,0,0,0,0,0,0,0,0,0,0,0,0,0,0,0,0,0,0,0],"split_type":[0,0,0,0,0,0,0,0,0,0,0,0,0,0,0,0,0,0,0,0,0,0,0,0,0,0,0,0,0,0,0,0,0,0,0,0,0,0,0,0,0,0,0,0,0,0,0,0,0,0,0,0,0,0,0,0,0,0,0,0,0,0,0,0,0,0,0,0,0,0,0,0,0,0,0,0,0,0,0,0,0,0,0,0,0,0,0,0,0,0,0,0,0,0,0,0,0,0,0,0,0,0,0,0,0,0,0,0,0,0,0,0,0,0,0,0,0,0,0,0,0,0,0,0,0,0,0],"sum_hessian":[2.7366598E6,4.7942866E5,2.257231E6,2.9293525E5,1.864934E5,2.1479828E6,1.09248445E5,1.7944055E5,1.1349471E5,9.899039E4,8.7503016E4,2.5824014E5,1.8897425E6,5.277895E4,5.6469496E4,2.6540781E3,1.7678647E5,4.2637437E3,1.0923097E5,7.798095E4,2.1009438E4,7.33774E4,1.4125619E4,6.994285E3,2.5124586E5,1.7962071E6,9.353544E4,2.3005291E4,2.9773656E4,5.3526754E4,2.9427434E3,9.285255E2,1.7255526E3,4.1176943E3,1.7266878E5,1.074534E3,3.1892097E3,1.0631603E5,2.914935E3,4.0623816E3,7.391857E4,2.9555513E3,1.8053887E4,7.117276E4,2.20464E3,6.674134E3,7.4514854E3,1.6403792E3,5.353906E3,1.3607437E4,2.3763842E5,9.9482325E5,8.013838E5,3.5645447E3,8.99709E4,6.199665E2,2.2385324E4,1.0390427E4,1.9383229E4,7.9949414E2,5.272726E4,1.1556371E3,1.7871063E3,5.3103864E2,3.9748688E2,1.6964677E3,2.9084969E1,2.4075635E3,1.7101311E3,3.7681855E4,1.3498692E5,6.7965076E2,3.9488324E2,5.8536037E1,3.1306738E3,5.8071164E4,4.8244867E4,1.068579E3,1.8463561E3,3.4468296E3,6.155518E2,6.3389336E4,1.0529235E4,1.4915498E3,1.4640016E3,1.7818922E4,2.349654E2,4.010442E3,6.716231E4,1.7263533E3,4.7828656E2,6.211925E3,4.6220914E2,6.9667495E3,4.8473584E2,3.952158E2,1.2451633E3,2.6511953E3,2.7027107E3,5.44594E3,8.161496E3,2.1861556E5,1.9022848E4,1.1057115E3,9.9371756E5,7.860869E5,1.5296907E4,2.9704773E3,5.9406744E2,7.572765E4,1.4243248E4,6.409287E1,5.558736E2,1.2016062E3,2.1183719E4,7.0612335E2,9.684304E3,1.3031255E4,6.351974E3,3.0418533E2,4.9530878E2,1.6094605E4,3.6632656E4,1.1300853E3,2.555177E1,5.211366E2,1.2659697E3],"tree_param":{"num_deleted":"0","num_feature":"1820","num_nodes":"127","size_leaf_vector":"0"}},{"base_weights":[1.3038656E-1,2.596566E-1,1.00083925E-1,2.0667917E-1,3.5225242E-1,8.904059E-2,1.5157346E-1,1.9832976E-1,6.6281265E-1,3.3047086E-1,5.796247E-1,8.5686445E-2,1.724963E-1,1.0223648E-1,1.770189E-1,3.2384983E-1,1.749225E-1,3.487554E-1,7E-1,4.4006568E-1,3.0334485E-1,5.0486714E-1,7E-1,8.401355E-2,1.7469786E-1,1.5643701E-1,3.6454034E-1,7E-1,1.0042326E-1,1.4003849E-1,2.1700081E-1,3.5792115E-1,1.2996167E-1,1.1991332E-1,2.1993303E-1,9.931905E-2,5.2484787E-1,7E-1,-2.3748766E-1,4.156218E-1,7E-1,5.5506015E-1,2.9302433E-1,5.456645E-1,1.1156803E-1,-1.0856829E-1,7E-1,3.099312E-1,8.360295E-2,5.060333E-1,1.4717838E-1,2.897972E-1,1.4327326E-1,6.8246335E-1,3.137723E-1,7E-1,1.1871439E-1,9.780658E-2,5.030216E-1,1.3741517E-1,6.8319386E-1,2.743643E-1,1.5188986E-1,3.9372358E-1,1.729588E-1,5.031124E-3,2.6810685E-1,9.832596E-2,2.601972E-1,1.9876757E-1,3.5323647E-1,-4.995891E-2,4.4905588E-1,6.5061975E-1,4.049584E-1,-9.312457E-2,7E-1,-1.6512756E-1,-2.751935E-1,4.6014333E-1,2.6674497E-1,3.3099285E-1,7E-1,1.4121345E-1,6.6501176E-1,1.7572828E-1,3.1330094E-1,6.1695975E-1,3.9132056E-1,-6.3345367E-3,4.0804785E-1,2.8925903E-2,-2.8190696E-1,-7.8291275E-2,7E-1,3.3306944E-1,1.3210528E-2,2.2675969E-1,8.305118E-2,7E-1,3.1175157E-1,3.6178142E-1,1.3078044E-1,1.9659829E-1,4.1066188E-1,1.5964352E-1,5.5542048E-2,4.152136E-1,7E-1,3.9186043E-1,1.405275E-1,7.625933E-2,1.3254926E-1,2.5722417E-1,9.249975E-2,6.1038226E-1,3.7860134E-1,6.030142E-1,1.3481584E-1,7E-1,1.9559899E-1,2.5303894E-1,5.1866E-1,3.724337E-1,1.4010487E-1],"categories":[],"categories_nodes":[],"categories_segments":[],"categories_sizes":[],"default_left":[true,true,true,true,true,true,true,true,true,true,true,true,true,true,true,true,true,true,true,true,true,true,true,true,true,true,true,true,true,true,true,true,true,true,true,true,true,true,true,true,true,true,true,true,true,true,true,true,true,true,true,true,true,true,true,false,true,true,true,true,true,true,true,false,false,false,false,false,false,false,false,false,false,false,false,false,false,false,false,false,false,false,false,false,false,false,false,false,false,false,false,false,false,false,false,false,false,false,false,false,false,false,false,false,false,false,false,false,false,false,false,false,false,false,false,false,false,false,false,false,false,false,false,false,false],"id":16,"left_children":[1,3,5,7,9,11,13,15,17,19,21,23,25,27,29,31,33,35,37,39,41,43,45,47,49,51,53,55,57,59,61,63,65,67,69,71,73,75,77,79,81,83,85,87,89,91,93,95,97,99,101,103,105,107,109,-1,111,113,115,117,119,121,123,-1,-1,-1,-1,-1,-1,-1,-1,-1,-1,-1,-1,-1,-1,-1,-1,-1,-1,-1,-1,-1,-1,-1,-1,-1,-1,-1,-1,-1,-1,-1,-1,-1,-1,-1,-1,-1,-1,-1,-1,-1,-1,-1,-1,-1,-1,-1,-1,-1,-1,-1,-1,-1,-1,-1,-1,-1,-1,-1,-1,-1,-1],"loss_changes":[1.1253387E4,2.6760664E3,1.3233066E3,1.3214258E3,9.830469E2,5.3639355E2,5.159453E2,1.00116016E3,2.2490552E2,5.3849414E2,2.4883496E2,2.7430566E2,2.2828833E2,1.9327405E2,4.0087402E2,3.5376367E2,7.111162E2,8.326543E1,5.886035E1,2.55646E2,3.771338E2,2.1097656E2,1.267168E2,1.6770996E2,3.0979248E2,1.1990881E2,9.1993225E1,1.1864014E1,1.469541E2,2.006189E2,4.8657178E2,3.0158936E2,1.3818059E2,3.9139978E2,4.4560693E2,4.1068073E1,1.6499115E1,4.5498535E1,1.388042E-1,2.1992139E2,6.803882E1,2.601444E2,3.3176953E2,1.3088306E2,4.325495E1,4.64536E0,9.4356445E1,2.2515808E1,1.4255664E2,1.7419952E2,1.1037598E2,6.905591E1,8.930884E1,2.3150726E1,6.661371E1,0E0,1.1367023E-2,1.172677E2,1.1802338E1,1.6958105E2,3.8095276E1,3.6070117E2,1.585553E2,0E0,0E0,0E0,0E0,0E0,0E0,0E0,0E0,0E0,0E0,0E0,0E0,0E0,0E0,0E0,0E0,0E0,0E0,0E0,0E0,0E0,0E0,0E0,0E0,0E0,0E0,0E0,0E0,0E0,0E0,0E0,0E0,0E0,0E0,0E0,0E0,0E0,0E0,0E0,0E0,0E0,0E0,0E0,0E0,0E0,0E0,0E0,0E0,0E0,0E0,0E0,0E0,0E0,0E0,0E0,0E0,0E0,0E0,0E0,0E0,0E0,0E0],"parents":[2147483647,0,0,1,1,2,2,3,3,4,4,5,5,6,6,7,7,8,8,9,9,10,10,11,11,12,12,13,13,14,14,15,15,16,16,17,17,18,18,19,19,20,20,21,21,22,22,23,23,24,24,25,25,26,26,27,27,28,28,29,29,30,30,31,31,32,32,33,33,34,34,35,35,36,36,37,37,38,38,39,39,40,40,41,41,42,42,43,43,44,44,45,45,46,46,47,47,48,48,49,49,50,50,51,51,52,52,53,53,54,54,56,56,57,57,58,58,59,59,60,60,61,61,62,62],"right_children":[2,4,6,8,10,12,14,16,18,20,22,24,26,28,30,32,34,36,38,40,42,44,46,48,50,52,54,56,58,60,62,64,66,68,70,72,74,76,78,80,82,84,86,88,90,92,94,96,98,100,102,104,106,108,110,-1,112,114,116,118,120,122,124,-1,-1,-1,-1,-1,-1,-1,-1,-1,-1,-1,-1,-1,-1,-1,-1,-1,-1,-1,-1,-1,-1,-1,-1,-1,-1,-1,-1,-1,-1,-1,-1,-1,-1,-1,-1,-1,-1,-1,-1,-1,-1,-1,-1,-1,-1,-1,-1,-1,-1,-1,-1,-1,-1,-1,-1,-1,-1,-1,-1,-1,-1],"split_conditions":[6.015E2,5.192E3,-3.0375E3,2.0205E3,1.87205E4,2.6075E3,-1.14515E4,6.245E2,-1.4835E3,5.285E2,1.243E3,1.73945E4,5.96E2,-9.55E1,-4.2045E3,1.945E2,6.05E1,1.265E2,6.6925E3,1.2515E3,-4.035E2,1.0705E3,1.923E3,-1.6E1,1.169E3,-1.6685E3,2.44E3,9.561E3,1.2185E3,1.34975E4,1.6625E3,2.25E3,1.4045E3,2.5745E3,-2.95E2,3.6995E3,1.38E4,5.185E2,5.9585E3,1.322E3,-1.4285E3,5.875E2,2.0075E3,-9.485E2,-7.775E2,4.1E2,-2.39E2,-7.44E2,-1.8425E3,3.385E2,3.38E2,1.739E3,1.3045E3,1.101E3,5.41E2,2.1000001E-1,3.8065E3,5.325E2,-1.332E3,4.865E2,1.8535E3,1.8645E3,-2.0801E4,1.1811708E-1,5.1887643E-2,1.5093373E-3,8.043206E-2,2.949779E-2,7.805916E-2,5.9630275E-2,1.0597094E-1,-1.4987674E-2,1.3471676E-1,1.9518593E-1,1.2148752E-1,-2.7937371E-2,2.1000001E-1,-4.953827E-2,-8.255806E-2,1.38043E-1,8.00235E-2,9.929786E-2,2.1000001E-1,4.2364035E-2,1.9950354E-1,5.2718487E-2,9.399029E-2,1.8508793E-1,1.1739617E-1,-1.900361E-3,1.2241436E-1,8.677771E-3,-8.457209E-2,-2.3487383E-2,2.1000001E-1,9.992084E-2,3.9631585E-3,6.8027906E-2,2.4915356E-2,2.1000001E-1,9.352548E-2,1.0853443E-1,3.9234135E-2,5.897949E-2,1.2319857E-1,4.789306E-2,1.6662614E-2,1.2456409E-1,2.1000001E-1,1.1755813E-1,4.2158253E-2,2.28778E-2,3.9764777E-2,7.716726E-2,2.7749926E-2,1.8311468E-1,1.13580406E-1,1.8090425E-1,4.0444754E-2,2.1000001E-1,5.86797E-2,7.5911686E-2,1.5559801E-1,1.1173011E-1,4.2031463E-2],"split_indices":[1133,52,26,1388,55,925,43,1159,1468,1420,882,118,1581,1024,136,1016,32,1152,1,1354,584,1528,242,758,36,1468,941,12,582,248,1575,114,636,741,1519,347,118,1566,0,925,90,934,743,1601,1454,23,948,336,1195,1114,1145,1354,821,1686,760,0,0,595,323,1151,245,1245,98,0,0,0,0,0,0,0,0,0,0,0,0,0,0,0,0,0,0,0,0,0,0,0,0,0,0,0,0,0,0,0,0,0,0,0,0,0,0,0,0,0,0,0,0,0,0,0,0,0,0,0,0,0,0,0,0,0,0,0,0,0,0],"split_type":[0,0,0,0,0,0,0,0,0,0,0,0,0,0,0,0,0,0,0,0,0,0,0,0,0,0,0,0,0,0,0,0,0,0,0,0,0,0,0,0,0,0,0,0,0,0,0,0,0,0,0,0,0,0,0,0,0,0,0,0,0,0,0,0,0,0,0,0,0,0,0,0,0,0,0,0,0,0,0,0,0,0,0,0,0,0,0,0,0,0,0,0,0,0,0,0,0,0,0,0,0,0,0,0,0,0,0,0,0,0,0,0,0,0,0,0,0,0,0,0,0,0,0,0,0],"sum_hessian":[2.8728002E6,5.455394E5,2.3272608E6,3.4700716E5,1.9853223E5,1.9162676E6,4.1099322E5,3.4077088E5,6.236286E3,1.8117836E5,1.735388E4,1.842229E6,7.403855E4,1.3984611E5,2.711471E5,5.355777E4,2.872131E5,1.8958643E3,4.340422E3,3.594355E4,1.452348E5,1.3151394E4,4.202488E3,1.8082466E6,3.3982418E4,6.832668E4,5.711867E3,3.0556808E2,1.3954055E5,1.408632E5,1.3028391E5,4.5552195E4,8.005577E3,1.2925233E5,1.5796077E5,7.851943E2,1.11067E3,4.273893E3,6.652892E1,3.319705E4,2.7464978E3,5.71813E3,1.3951667E5,1.1915047E4,1.2363468E3,1.9357031E2,4.0089175E3,3.2791519E3,1.8049675E6,2.6046733E3,3.1377746E4,6.136594E3,6.2190082E4,7.848002E2,4.9270674E3,2.700061E2,3.5561996E1,1.3864069E5,8.998507E2,1.4018738E5,6.758187E2,6.9260984E4,6.102292E4,3.8163844E4,7.3883516E3,4.204398E3,3.8011794E3,1.1201654E5,1.7235785E4,1.36319E5,2.164177E4,5.509078E2,2.3428648E2,5.398768E2,5.707932E2,7.210894E1,4.201784E3,2.4633993E1,4.189493E1,2.5553266E4,7.643786E3,5.0227164E2,2.244226E3,1.2007844E3,4.517345E3,2.0564547E4,1.18952125E5,8.148196E3,3.7668506E3,8.8527423E2,3.5107263E2,1.08410774E2,8.515953E1,1.5558026E2,3.8533374E3,3.041828E3,2.3732402E2,6.928607E3,1.7980389E6,7.9640717E2,1.8082662E3,2.2258997E3,2.9151846E4,3.4663306E3,2.670264E3,5.240983E4,9.780252E3,2.934691E2,4.9133105E2,3.395377E3,1.5316903E3,1.034092E1,2.5221075E1,4.464978E3,1.3417572E5,4.809442E2,4.1890652E2,7.7700745E2,1.3941038E5,5.244076E2,1.5141112E2,6.3702246E4,5.558737E3,3.0938652E3,5.7929055E4],"tree_param":{"num_deleted":"0","num_feature":"1820","num_nodes":"125","size_leaf_vector":"0"}},{"base_weights":[1.0619884E-1,2.1497476E-1,8.4846936E-2,1.22171655E-1,2.444845E-1,7.922919E-2,1.9492213E-1,9.112278E-2,2.0032218E-1,3.1316134E-1,2.1384452E-1,1.4495581E-1,7.542043E-2,2.6256934E-1,1.4052871E-1,7.940738E-2,2.5838146E-1,1.8755263E-1,5.2819246E-1,4.9022272E-1,2.7737054E-1,3.398964E-1,1.9930156E-1,2.5890726E-1,1.2713435E-1,7.4646726E-2,4.2749277E-1,2.3975165E-1,5.163968E-1,3.616776E-1,1.262441E-1,2.916063E-2,1.0785108E-1,9.9959E-2,3.6378652E-1,2.3539415E-1,5.906625E-2,4.1886348E-1,7E-1,6.0895765E-1,3.7070796E-1,7E-1,2.6507106E-1,4.621039E-1,2.6660547E-1,2.1770361E-1,1.1184752E-1,2.1876837E-1,5.166884E-1,9.1592714E-2,1.6045098E-1,1.0347958E-1,7.014843E-2,1.1960075E-1,5.941174E-1,2.78012E-1,1.21604234E-1,2.3825216E-1,7E-1,2.985177E-1,7E-1,7.046542E-2,1.5237498E-1,3.6717835E-1,2.3547173E-2,1.3652444E-1,4.7260597E-2,7E-1,5.706764E-2,2.9157758E-1,6.07017E-1,2.809525E-1,1.3344361E-1,1.7973915E-1,2.3587225E-3,3.7860724E-1,4.7516197E-1,7E-1,6.3480073E-1,6.919438E-1,3.1762654E-1,1.3687931E-1,4.2607445E-1,7E-1,3.5767105E-1,2.4518188E-2,2.8622192E-1,3.188143E-1,5.749367E-1,3.859245E-1,1.8016514E-1,3.9985475E-1,2.0989019E-1,8.770814E-2,3.59873E-1,3.8897026E-1,1.9369139E-1,4.139316E-1,7E-1,8.61183E-2,3.1335154E-1,6.161765E-1,1.5501665E-1,3.7236774E-1,1.0051878E-1,6.892935E-2,1.6456963E-1,2.7637205E-1,-5.7732547E-3,3.0058008E-1,7E-1,2.1141222E-1,3.5939753E-1,8.207805E-2,3.314168E-1,3.569283E-1,-7.71271E-2,-2.340178E-1,7E-1,3.5881823E-1,-4.7538273E-2,-7.5780295E-2,7E-1,3.842087E-2,1.4287442E-1,2.1103553E-1,1.13247395E-1],"categories":[],"categories_nodes":[],"categories_segments":[],"categories_sizes":[],"default_left":[true,true,true,true,true,true,true,true,true,true,true,true,true,true,true,true,true,true,true,true,true,true,true,true,true,true,true,true,true,true,true,true,true,true,true,true,true,true,true,true,true,true,true,true,true,true,true,true,true,true,true,true,true,true,true,true,true,true,true,true,true,true,true,false,false,false,false,false,false,false,false,false,false,false,false,false,false,false,false,false,false,false,false,false,false,false,false,false,false,false,false,false,false,false,false,false,false,false,false,false,false,false,false,false,false,false,false,false,false,false,false,false,false,false,false,false,false,false,false,false,false,false,false,false,false,false,false],"id":17,"left_children":[1,3,5,7,9,11,13,15,17,19,21,23,25,27,29,31,33,35,37,39,41,43,45,47,49,51,53,55,57,59,61,63,65,67,69,71,73,75,77,79,81,83,85,87,89,91,93,95,97,99,101,103,105,107,109,111,113,115,117,119,121,123,125,-1,-1,-1,-1,-1,-1,-1,-1,-1,-1,-1,-1,-1,-1,-1,-1,-1,-1,-1,-1,-1,-1,-1,-1,-1,-1,-1,-1,-1,-1,-1,-1,-1,-1,-1,-1,-1,-1,-1,-1,-1,-1,-1,-1,-1,-1,-1,-1,-1,-1,-1,-1,-1,-1,-1,-1,-1,-1,-1,-1,-1,-1,-1,-1],"loss_changes":[6.9400117E3,1.3426914E3,1.5445488E3,2.8701746E2,7.827246E2,5.9491113E2,4.4623975E2,1.6587134E2,1.4071643E2,7.271387E2,4.7149805E2,2.643142E2,6.118721E2,3.129524E2,2.1233704E2,1.1307535E2,9.249524E1,1.9899072E2,2.986856E1,2.7359668E2,5.987178E2,2.3819043E2,3.7114453E2,1.8203369E2,1.3327954E2,2.9069824E2,2.5261633E2,2.241709E2,2.3064038E2,1.2797107E2,9.203754E1,5.4258957E1,8.776465E1,6.0133896E1,5.8257263E1,1.09531494E2,6.011709E1,1.757309E0,2.558136E-1,2.3376074E2,1.244718E2,1.0109314E2,4.7476025E2,1.610664E2,1.7150085E2,2.7109668E2,2.4002838E2,6.4944336E1,6.934723E1,6.609631E1,1.4379541E2,2.4078467E2,2.231709E2,3.4020607E1,1.0307263E2,2.0299585E2,1.0060632E2,6.6979706E1,6.4288086E1,7.708502E1,3.0254425E1,4.674646E1,9.8683105E1,0E0,0E0,0E0,0E0,0E0,0E0,0E0,0E0,0E0,0E0,0E0,0E0,0E0,0E0,0E0,0E0,0E0,0E0,0E0,0E0,0E0,0E0,0E0,0E0,0E0,0E0,0E0,0E0,0E0,0E0,0E0,0E0,0E0,0E0,0E0,0E0,0E0,0E0,0E0,0E0,0E0,0E0,0E0,0E0,0E0,0E0,0E0,0E0,0E0,0E0,0E0,0E0,0E0,0E0,0E0,0E0,0E0,0E0,0E0,0E0,0E0,0E0,0E0,0E0],"parents":[2147483647,0,0,1,1,2,2,3,3,4,4,5,5,6,6,7,7,8,8,9,9,10,10,11,11,12,12,13,13,14,14,15,15,16,16,17,17,18,18,19,19,20,20,21,21,22,22,23,23,24,24,25,25,26,26,27,27,28,28,29,29,30,30,31,31,32,32,33,33,34,34,35,35,36,36,37,37,38,38,39,39,40,40,41,41,42,42,43,43,44,44,45,45,46,46,47,47,48,48,49,49,50,50,51,51,52,52,53,53,54,54,55,55,56,56,57,57,58,58,59,59,60,60,61,61,62,62],"right_children":[2,4,6,8,10,12,14,16,18,20,22,24,26,28,30,32,34,36,38,40,42,44,46,48,50,52,54,56,58,60,62,64,66,68,70,72,74,76,78,80,82,84,86,88,90,92,94,96,98,100,102,104,106,108,110,112,114,116,118,120,122,124,126,-1,-1,-1,-1,-1,-1,-1,-1,-1,-1,-1,-1,-1,-1,-1,-1,-1,-1,-1,-1,-1,-1,-1,-1,-1,-1,-1,-1,-1,-1,-1,-1,-1,-1,-1,-1,-1,-1,-1,-1,-1,-1,-1,-1,-1,-1,-1,-1,-1,-1,-1,-1,-1,-1,-1,-1,-1,-1,-1,-1,-1,-1,-1,-1],"split_conditions":[4.775E2,1.02005E4,-7.1735E3,-4.245E2,2.865E2,4.35E1,6.665E2,3.5215E3,-4.34E2,8.795E2,1.4435E3,-1.7595E3,-2.194E3,6.01E2,-2.1515E3,1.5915E3,8.8155E3,4.125E2,-5.435E2,-7.88E2,2.75E2,1.4295E3,-6.525E2,3.3335E3,1.8225E3,2.175E2,1.9925E3,2.313E3,2.945E2,3.719E3,1.4205E3,6.6E2,9.785E2,-1.7075E3,7.377E3,1.5075E3,1.375E2,4.995E2,1.76E3,1.1485E3,1.09E2,-1.6205E3,-1.65245E4,5.315E2,1.0015E3,1.225E2,1.9629E4,-1.4138E4,4.8E2,-1.1823E4,7.87E2,-1.53705E4,2.0408E4,3.155E2,7.2125E3,3.112E3,2.0561E4,4.7575E3,3.658E3,-1.504E3,2.0715E3,-8.255E2,7.635E2,1.1015351E-1,7.064152E-3,4.095733E-2,1.417818E-2,2.1000001E-1,1.7120292E-2,8.747327E-2,1.821051E-1,8.428576E-2,4.0033083E-2,5.3921748E-2,7.076168E-4,1.1358218E-1,1.4254859E-1,2.1000001E-1,1.9044022E-1,2.0758316E-1,9.5287964E-2,4.1063793E-2,1.2782234E-1,2.1000001E-1,1.0730132E-1,7.3554567E-3,8.586658E-2,9.5644295E-2,1.7248102E-1,1.1577735E-1,5.4049544E-2,1.1995643E-1,6.296706E-2,2.6312442E-2,1.079619E-1,1.1669108E-1,5.8107417E-2,1.2417949E-1,2.1000001E-1,2.5835492E-2,9.4005466E-2,1.8485296E-1,4.6504997E-2,1.11710325E-1,3.0155635E-2,2.0678807E-2,4.9370892E-2,8.291162E-2,-1.7319765E-3,9.017403E-2,2.1000001E-1,6.342367E-2,1.0781927E-1,2.4623415E-2,9.942504E-2,1.0707849E-1,-2.313813E-2,-7.0205346E-2,2.1000001E-1,1.07645474E-1,-1.4261482E-2,-2.2734089E-2,2.1000001E-1,1.1526261E-2,4.2862326E-2,6.331066E-2,3.397422E-2],"split_indices":[1132,119,39,29,1146,754,1522,743,1604,87,624,1039,79,1496,271,634,122,151,1042,1602,1049,856,1194,851,855,1557,974,1377,1464,656,1363,698,908,1611,340,635,989,1466,194,957,1001,1520,261,726,607,1088,58,84,1461,325,867,45,105,1581,115,37,104,841,244,1546,37,768,1133,0,0,0,0,0,0,0,0,0,0,0,0,0,0,0,0,0,0,0,0,0,0,0,0,0,0,0,0,0,0,0,0,0,0,0,0,0,0,0,0,0,0,0,0,0,0,0,0,0,0,0,0,0,0,0,0,0,0,0,0,0,0,0,0],"split_type":[0,0,0,0,0,0,0,0,0,0,0,0,0,0,0,0,0,0,0,0,0,0,0,0,0,0,0,0,0,0,0,0,0,0,0,0,0,0,0,0,0,0,0,0,0,0,0,0,0,0,0,0,0,0,0,0,0,0,0,0,0,0,0,0,0,0,0,0,0,0,0,0,0,0,0,0,0,0,0,0,0,0,0,0,0,0,0,0,0,0,0,0,0,0,0,0,0,0,0,0,0,0,0,0,0,0,0,0,0,0,0,0,0,0,0,0,0,0,0,0,0,0,0,0,0,0,0],"sum_hessian":[2.988076E6,4.9029422E5,2.497782E6,1.18291805E5,3.7200244E5,2.3764978E6,1.2128402E5,8.465923E4,3.3632586E4,1.1476267E5,2.5723975E5,1.3016914E5,2.2463288E6,5.405452E4,6.722951E4,7.911892E4,5.5402993E3,3.2373314E4,1.2592699E3,1.929505E4,9.5467625E4,2.6606273E4,2.3063348E5,1.7602744E4,1.125664E5,2.2414042E6,4.9244463E3,4.959789E4,4.4566274E3,4.0775833E3,6.3151926E4,2.859931E4,5.0519613E4,2.2142532E3,3.3260461E3,2.3589139E4,8.784176E3,8.537683E2,4.0550165E2,9.677047E3,9.618003E3,2.1555464E3,9.331208E4,9.972511E3,1.6633762E4,1.9053884E5,4.009463E4,1.5232719E4,2.3700244E3,5.4466348E4,5.8100047E4,3.0249212E5,1.9389121E6,1.7298029E3,3.194643E3,3.746427E4,1.2133623E4,1.7878264E3,2.668801E3,3.692228E3,3.8535526E2,2.0147986E4,4.3003938E4,4.6613773E2,2.8133172E4,3.429084E4,1.6228775E4,1.390488E2,2.0752043E3,2.5663584E3,7.596876E2,1.6302384E4,7.286756E3,2.8075583E3,5.9766177E3,5.023139E2,3.5145438E2,2.3105615E2,1.744455E2,7.5305757E3,2.1464714E3,1.8420337E3,7.7759697E3,1.2897146E3,8.6583185E2,7.541641E3,8.577044E4,4.395E3,5.5775103E3,6.986454E3,9.647309E3,7.8349917E3,1.8270386E5,3.653971E4,3.5549194E3,1.954266E3,1.3278453E4,1.8259805E3,5.440439E2,5.3155523E4,1.3108265E3,6.833303E2,5.741672E4,3.2931902E3,2.9919894E5,1.9141996E6,2.4712566E4,7.681195E2,9.616834E2,8.7271655E2,2.3219265E3,2.0605707E4,1.6858562E4,1.0211322E4,1.9223003E3,1.2989167E3,4.8890958E2,7.3253624E1,2.5955474E3,3.1442952E3,5.479327E2,5.0084435E1,3.352708E2,1.3967992E4,6.179994E3,1.7205244E4,2.5798693E4],"tree_param":{"num_deleted":"0","num_feature":"1820","num_nodes":"127","size_leaf_vector":"0"}},{"base_weights":[8.7159276E-2,1.602113E-1,6.749424E-2,8.897577E-2,1.8419956E-1,6.0439937E-2,1.0804386E-1,7.735372E-2,2.1394737E-1,2.4808235E-1,1.573833E-1,5.8040537E-2,1.1972055E-1,1.6490074E-1,8.79756E-2,6.8635836E-2,2.4307643E-1,2.7867976E-1,7.913468E-2,3.2843715E-1,2.0883226E-1,1.21625274E-1,1.9483598E-1,1.6318296E-1,5.7277024E-2,1.111482E-1,2.8088933E-1,6.8932645E-2,1.932546E-1,7.7149406E-2,1.5125245E-1,9.487621E-2,3.0717822E-2,1.0727332E-2,2.9976127E-1,3.3012238E-1,8.954943E-2,-5.827075E-3,3.0238545E-1,4.043519E-1,2.2669145E-1,4.0631378E-1,1.9780585E-1,1.5726694E-1,5.0043963E-2,2.1549776E-1,9.6051134E-2,1.00344725E-1,2.2397085E-1,7.706226E-2,5.4469153E-2,1.0869658E-1,6.149389E-1,2.6198617E-1,7E-1,4.2007606E-2,2.5283366E-1,2.1807575E-1,8.137862E-2,7.3561445E-2,2.629503E-1,1.4608423E-1,7E-1,7.082999E-2,1.5250197E-1,3.431966E-1,2.7293276E-2,-4.1428525E-2,1.848297E-1,3.374922E-1,4.9642604E-2,4.8507072E-2,3.630314E-1,2.401755E-1,-5.1852573E-2,7.4036025E-2,-1.1134426E-1,1.03919454E-1,4.1756496E-1,3.695526E-1,6.518355E-1,1.0863777E-1,3.0028442E-1,5.1479405E-1,2.51897E-1,6.4906734E-1,1.9348422E-1,1.3636227E-1,2.6643938E-1,1.7102781E-1,3.2432735E-2,1.8234318E-1,2.6744354E-1,1.9548686E-1,1.502088E-2,2.6010895E-1,6.942963E-2,3.814789E-1,1.9045766E-1,4.9013495E-1,7.559151E-2,6.6077447E-1,5.4384794E-2,1.4932263E-1,8.195625E-2,3.9426124E-1,7E-1,3.4490383E-1,1.08844064E-1,3.568082E-2,7E-1,1.3999046E-1,4.7384375E-1,5.5902936E-2,2.348669E-1,3.917239E-2,2.5893873E-1,5.612031E-1,7.237926E-2,8.0466956E-2,5.4108584E-1,1.32187E-1,3.6887488E-1,7E-1,1.3147439E-1],"categories":[],"categories_nodes":[],"categories_segments":[],"categories_sizes":[],"default_left":[true,true,true,true,true,true,true,true,true,true,true,true,true,true,true,true,true,true,true,true,true,true,true,true,true,true,true,true,true,true,true,true,true,true,true,true,true,true,true,true,true,true,true,true,true,true,true,true,true,true,true,true,true,true,false,true,true,true,true,true,true,true,true,false,false,false,false,false,false,false,false,false,false,false,false,false,false,false,false,false,false,false,false,false,false,false,false,false,false,false,false,false,false,false,false,false,false,false,false,false,false,false,false,false,false,false,false,false,false,false,false,false,false,false,false,false,false,false,false,false,false,false,false,false,false],"id":18,"left_children":[1,3,5,7,9,11,13,15,17,19,21,23,25,27,29,31,33,35,37,39,41,43,45,47,49,51,53,55,57,59,61,63,65,67,69,71,73,75,77,79,81,83,85,87,89,91,93,95,97,99,101,103,105,107,-1,109,111,113,115,117,119,121,123,-1,-1,-1,-1,-1,-1,-1,-1,-1,-1,-1,-1,-1,-1,-1,-1,-1,-1,-1,-1,-1,-1,-1,-1,-1,-1,-1,-1,-1,-1,-1,-1,-1,-1,-1,-1,-1,-1,-1,-1,-1,-1,-1,-1,-1,-1,-1,-1,-1,-1,-1,-1,-1,-1,-1,-1,-1,-1,-1,-1,-1,-1],"loss_changes":[4.432586E3,1.1182871E3,6.9541016E2,2.3943506E2,8.3864453E2,2.945459E2,4.110464E2,2.1790613E2,1.2238617E2,4.564502E2,4.617793E2,1.5976758E2,1.1126514E2,2.5572021E2,1.823999E2,1.4257849E2,9.927612E1,9.216699E1,8.6337135E1,3.667871E2,2.1167822E2,4.500547E2,3.437378E2,5.478485E1,1.097666E2,9.440619E1,4.338437E1,1.0613112E2,2.0144067E2,1.5155994E2,1.4388031E2,1.1734424E2,6.270964E1,1.3440899E1,5.7168396E1,6.902124E1,4.3199768E1,2.7799845E1,2.8638893E1,2.3402295E2,1.763197E2,8.600116E1,1.7950122E2,2.687339E2,1.2493779E2,2.3983643E2,2.3474707E2,3.483705E1,3.842041E1,1.4915222E2,8.8467285E1,8.268182E1,1.0629288E1,5.015616E1,0E0,7.909741E1,6.8204254E1,1.6166724E2,9.87229E1,1.2855505E2,2.1857059E2,1.1961487E2,1.6233917E1,0E0,0E0,0E0,0E0,0E0,0E0,0E0,0E0,0E0,0E0,0E0,0E0,0E0,0E0,0E0,0E0,0E0,0E0,0E0,0E0,0E0,0E0,0E0,0E0,0E0,0E0,0E0,0E0,0E0,0E0,0E0,0E0,0E0,0E0,0E0,0E0,0E0,0E0,0E0,0E0,0E0,0E0,0E0,0E0,0E0,0E0,0E0,0E0,0E0,0E0,0E0,0E0,0E0,0E0,0E0,0E0,0E0,0E0,0E0,0E0,0E0,0E0],"parents":[2147483647,0,0,1,1,2,2,3,3,4,4,5,5,6,6,7,7,8,8,9,9,10,10,11,11,12,12,13,13,14,14,15,15,16,16,17,17,18,18,19,19,20,20,21,21,22,22,23,23,24,24,25,25,26,26,27,27,28,28,29,29,30,30,31,31,32,32,33,33,34,34,35,35,36,36,37,37,38,38,39,39,40,40,41,41,42,42,43,43,44,44,